{"learner":{"attributes":{"scikit_learn":"{\"_estimator_type\": \"classifier\"}"},"feature_names":[],"feature_types":[],"gradient_booster":{"model":{"cats":{"enc":[],"feature_segments":[],"sorted_idx":[]},"gbtree_model_param":{"num_parallel_tree":"1","num_trees":"100"},"iteration_indptr":[0,1,2,3,4,5,6,7,8,9,10,11,12,13,14,15,16,17,18,19,20,21,22,23,24,25,26,27,28,29,30,31,32,33,34,35,36,37,38,39,40,41,42,43,44,45,46,47,48,49,50,51,52,53,54,55,56,57,58,59,60,61,62,63,64,65,66,67,68,69,70,71,72,73,74,75,76,77,78,79,80,81,82,83,84,85,86,87,88,89,90,91,92,93,94,95,96,97,98,99,100],"tree_info":[0,0,0,0,0,0,0,0,0,0,0,0,0,0,0,0,0,0,0,0,0,0,0,0,0,0,0,0,0,0,0,0,0,0,0,0,0,0,0,0,0,0,0,0,0,0,0,0,0,0,0,0,0,0,0,0,0,0,0,0,0,0,0,0,0,0,0,0,0,0,0,0,0,0,0,0,0,0,0,0,0,0,0,0,0,0,0,0,0,0,0,0,0,0,0,0,0,0,0,0],"trees":[{"base_weights":[4.487335E-8,-6.416856E-1,2.8581495E0,-9.108652E-2,2.600295E-1,-3.990049E-4,4.227356E-1,-6.530877E-2,1.3853973E-1],"categories":[],"categories_nodes":[],"categories_segments":[],"categories_sizes":[],"default_left":[0,0,0,0,0,0,0,0,0],"id":0,"left_children":[1,3,5,-1,7,-1,-1,-1,-1],"loss_changes":[3.1096033E1,3.597683E0,1.2199253E1,0E0,4.975173E0,0E0,0E0,0E0,0E0],"parents":[2147483647,0,0,1,1,2,2,4,4],"right_children":[2,4,6,-1,8,-1,-1,-1,-1],"split_conditions":[1.1247449E0,5.5923814E-1,-2.4882749E-2,-9.108652E-2,7.487465E-1,-3.990049E-4,4.227356E-1,-6.530877E-2,1.3853973E-1],"split_indices":[5,3,1,0,6,0,0,0,0],"split_type":[0,0,0,0,0,0,0,0,0],"sum_hessian":[1.4954999E1,1.2846344E1,2.1086547E0,9.885254E0,2.9610896E0,1.0049759E0,1.103679E0,1.8663838E0,1.0947059E0],"tree_param":{"num_deleted":"0","num_feature":"14","num_nodes":"9","size_leaf_vector":"1"}},{"base_weights":[1.5071998E-2,-8.2729375E-1,1.8230255E0,-9.0636574E-2,-6.925122E-4,-6.185162E-2,3.050713E0,-4.3821554E-3,4.3553838E-1],"categories":[],"categories_nodes":[],"categories_segments":[],"categories_sizes":[],"default_left":[0,0,0,0,0,0,0,0,0],"id":1,"left_children":[1,3,5,-1,-1,-1,7,-1,-1],"loss_changes":[2.5446468E1,7.3388815E-1,1.7797323E1,0E0,0E0,0E0,1.5131275E1,0E0,0E0],"parents":[2147483647,0,0,1,1,2,2,6,6],"right_children":[2,4,6,-1,-1,-1,8,-1,-1],"split_conditions":[7.155991E-1,1.3589534E0,4.5023766E-1,-9.0636574E-2,-6.925122E-4,-6.185162E-2,6.2524265E-1,-4.3821554E-3,4.3553838E-1],"split_indices":[5,3,3,0,0,0,6,0,0],"split_type":[0,0,0,0,0,0,0,0,0],"sum_hessian":[1.4718286E1,1.0410306E1,4.307979E0,9.3995E0,1.0108067E0,1.6074287E0,2.7005506E0,1.0875096E0,1.6130409E0],"tree_param":{"num_deleted":"0","num_feature":"14","num_nodes":"9","size_leaf_vector":"1"}},{"base_weights":[1.7535063E-2,-7.386629E-1,1.6333427E0,-8.998998E-2,1.4866305E-2,1.8323886E-1,3.7713462E-1,1.1611114E-1,-6.583144E-2],"categories":[],"categories_nodes":[],"categories_segments":[],"categories_sizes":[],"default_left":[0,0,0,0,0,0,0,0,0],"id":2,"left_children":[1,3,5,-1,-1,7,-1,-1,-1],"loss_changes":[2.0361502E1,1.7601418E0,1.5769162E1,0E0,0E0,4.232698E0,0E0,0E0,0E0],"parents":[2147483647,0,0,1,1,2,2,5,5],"right_children":[2,4,6,-1,-1,8,-1,-1,-1],"split_conditions":[9.095621E-1,4.5023766E-1,7.630639E-1,-8.998998E-2,1.4866305E-2,-3.2864904E-1,3.7713462E-1,1.1611114E-1,-6.583144E-2],"split_indices":[3,3,6,0,0,13,0,0,0],"split_type":[0,0,0,0,0,0,0,0,0],"sum_hessian":[1.4676795E1,1.0367607E1,4.309188E0,8.7613945E0,1.6062123E0,3.214592E0,1.0945959E0,1.3112335E0,1.9033583E0],"tree_param":{"num_deleted":"0","num_feature":"14","num_nodes":"9","size_leaf_vector":"1"}},{"base_weights":[3.0015875E-2,-8.0517894E-1,1.3623602E0,-5.074373E-4,-8.928415E-2,-5.8187723E-2,2.022123E0,-4.7563445E-3,2.621967E0,5.343454E-2,3.862867E-1],"categories":[],"categories_nodes":[],"categories_segments":[],"categories_sizes":[],"default_left":[0,0,0,0,0,0,0,0,0,0,0],"id":3,"left_children":[1,3,5,-1,-1,-1,7,-1,9,-1,-1],"loss_changes":[1.8326473E1,7.0709753E-1,9.3060465E0,0E0,0E0,0E0,6.2766647E0,0E0,7.934458E0,0E0,0E0],"parents":[2147483647,0,0,1,1,2,2,6,6,8,8],"right_children":[2,4,6,-1,-1,-1,8,-1,10,-1,-1],"split_conditions":[7.155991E-1,-1.1714514E0,4.5023766E-1,-5.074373E-4,-8.928415E-2,-5.8187723E-2,6.2524265E-1,-4.7563445E-3,-6.207916E-1,5.343454E-2,3.862867E-1],"split_indices":[5,13,3,0,0,0,6,0,2,0,0],"split_type":[0,0,0,0,0,0,0,0,0,0,0],"sum_hessian":[1.44835005E1,9.145936E0,5.337564E0,1.0075767E0,8.138359E0,1.3822625E0,3.9553013E0,1.0956402E0,2.859661E0,1.5994483E0,1.2602129E0],"tree_param":{"num_deleted":"0","num_feature":"14","num_nodes":"11","size_leaf_vector":"1"}},{"base_weights":[3.6671735E-2,-7.905513E-1,1.16094E0,-8.8370174E-2,-3.9229417E-4,3.824058E-1,2.703068E-1,1.2543224E-1,-2.7447143E-1,-6.752619E-2,4.496753E-2],"categories":[],"categories_nodes":[],"categories_segments":[],"categories_sizes":[],"default_left":[0,0,0,0,0,0,0,0,0,0,0],"id":4,"left_children":[1,3,5,-1,-1,7,-1,-1,9,-1,-1],"loss_changes":[1.5218436E1,6.8923855E-1,7.27829E0,0E0,0E0,3.6463482E0,0E0,0E0,1.4961009E0,0E0,0E0],"parents":[2147483647,0,0,1,1,2,2,5,5,8,8],"right_children":[2,4,6,-1,-1,8,-1,-1,10,-1,-1],"split_conditions":[7.155991E-1,1.2539332E0,1.192012E0,-8.8370174E-2,-3.9229417E-4,-9.2706674E-1,2.703068E-1,1.2543224E-1,-3.6684397E-1,-6.752619E-2,4.496753E-2],"split_indices":[5,1,1,0,0,11,0,0,2,0,0],"split_type":[0,0,0,0,0,0,0,0,0,0,0],"sum_hessian":[1.4376705E1,8.45353E0,5.9231753E0,7.4481373E0,1.0053934E0,4.7653756E0,1.1577995E0,1.6567451E0,3.1086307E0,2.0445492E0,1.0640814E0],"tree_param":{"num_deleted":"0","num_feature":"14","num_nodes":"11","size_leaf_vector":"1"}},{"base_weights":[4.5903258E-2,-8.777214E-2,9.495526E-1,2.0641522E-1,2.4844256E-1,-2.819453E-1,1.4139764E-1,2.3423845E-1,-7.009275E-2,-5.1746715E-2,8.416271E-2],"categories":[],"categories_nodes":[],"categories_segments":[],"categories_sizes":[],"default_left":[0,0,0,0,0,0,0,0,0,0,0],"id":5,"left_children":[1,-1,3,5,-1,7,-1,9,-1,-1,-1],"loss_changes":[1.3549075E1,0E0,8.818735E0,4.292542E0,0E0,1.3613017E0,0E0,1.9100208E0,0E0,0E0,0E0],"parents":[2147483647,0,0,2,2,3,3,5,5,7,7],"right_children":[2,-1,4,6,-1,8,-1,10,-1,-1,-1],"split_conditions":[4.5023766E-1,-8.777214E-2,1.192012E0,1.6505072E0,2.4844256E-1,-1.2914799E-1,1.4139764E-1,7.487465E-1,-7.009275E-2,-5.1746715E-2,8.416271E-2],"split_indices":[3,0,1,5,0,2,0,6,0,0,0],"split_type":[0,0,0,0,0,0,0,0,0,0,0],"sum_hessian":[1.4235002E1,7.0538836E0,7.181118E0,5.6028686E0,1.5782496E0,4.535246E0,1.0676225E0,2.2294772E0,2.305769E0,1.0625317E0,1.1669455E0],"tree_param":{"num_deleted":"0","num_feature":"14","num_nodes":"11","size_leaf_vector":"1"}},{"base_weights":[5.2460454E-2,-8.6772144E-2,8.3883834E-1,1.685943E-2,1.8903618E0,8.3661735E-2,-5.232422E-1,2.8388664E-1,-9.511146E-3,-6.849834E-2,-1.1680991E-3],"categories":[],"categories_nodes":[],"categories_segments":[],"categories_sizes":[],"default_left":[0,0,0,0,0,0,0,0,0,0,0],"id":6,"left_children":[1,-1,3,5,7,-1,9,-1,-1,-1,-1],"loss_changes":[1.1676227E1,0E0,7.4590116E0,3.0381598E0,7.413886E0,0E0,3.3585048E-1,0E0,0E0,0E0,0E0],"parents":[2147483647,0,0,2,2,3,3,4,4,6,6],"right_children":[2,-1,4,6,8,-1,10,-1,-1,-1,-1],"split_conditions":[4.5023766E-1,-8.6772144E-2,7.630639E-1,1.0517459E0,4.2469007E-1,8.3661735E-2,1.4745942E0,2.8388664E-1,-9.511146E-3,-6.849834E-2,-1.1680991E-3],"split_indices":[3,0,6,0,8,0,5,0,0,0,0],"split_type":[0,0,0,0,0,0,0,0,0,0,0],"sum_hessian":[1.4130163E1,6.463474E0,7.6666894E0,4.873272E0,2.7934175E0,1.7174909E0,3.155781E0,1.5994883E0,1.1939292E0,2.1401272E0,1.0156538E0],"tree_param":{"num_deleted":"0","num_feature":"14","num_nodes":"11","size_leaf_vector":"1"}},{"base_weights":[5.382061E-2,-3.2516977E-1,1.7865744E-1,-5.940888E-1,1.424679E-1,4.2592224E-2,-7.335082E-1,-8.0562836E-1,-5.8836787E-4,-8.927379E-2,-2.835365E-3],"categories":[],"categories_nodes":[],"categories_segments":[],"categories_sizes":[],"default_left":[0,0,0,0,0,0,0,0,0,0,0],"id":7,"left_children":[1,3,-1,5,-1,-1,7,9,-1,-1,-1],"loss_changes":[1.0495609E1,7.0739884E0,0E0,2.0441046E0,0E0,0E0,5.76705E-1,6.567483E-1,0E0,0E0,0E0],"parents":[2147483647,0,0,1,1,3,3,6,6,7,7],"right_children":[2,4,-1,6,-1,-1,8,10,-1,-1,-1],"split_conditions":[1.5144129E0,1.651304E0,1.7865744E-1,-1.5391421E0,1.424679E-1,4.2592224E-2,1.3870556E0,1.5121486E0,-5.8836787E-4,-8.927379E-2,-2.835365E-3],"split_indices":[7,1,0,11,0,0,13,5,0,0,0],"split_type":[0,0,0,0,0,0,0,0,0,0,0],"sum_hessian":[1.4097784E1,1.2234234E1,1.8635497E0,1.1177026E1,1.0572085E0,1.0969107E0,1.0080115E1,9.0735655E0,1.0065496E0,8.025586E0,1.0479796E0],"tree_param":{"num_deleted":"0","num_feature":"14","num_nodes":"11","size_leaf_vector":"1"}},{"base_weights":[6.2023547E-2,-7.412949E-1,7.9781556E-1,-8.517367E-2,-2.6111072E-4,1.5032637E0,-1.2396251E-1,8.456972E-3,2.2990541E-1,-7.237242E-2,9.93315E-2],"categories":[],"categories_nodes":[],"categories_segments":[],"categories_sizes":[],"default_left":[0,0,0,0,0,0,0,0,0,0,0],"id":8,"left_children":[1,3,5,-1,-1,7,9,-1,-1,-1,-1],"loss_changes":[9.44191E0,6.2405014E-1,5.581536E0,0E0,0E0,5.1977415E0,3.7482424E0,0E0,0E0,0E0,0E0],"parents":[2147483647,0,0,1,1,2,2,5,5,6,6],"right_children":[2,4,6,-1,-1,8,10,-1,-1,-1,-1],"split_conditions":[7.155991E-1,1.3132498E0,-5.344833E-2,-8.517367E-2,-2.6111072E-4,4.4517696E-1,1.2064551E0,8.456972E-3,2.2990541E-1,-7.237242E-2,9.93315E-2],"split_indices":[5,3,13,0,0,1,13,0,0,0,0],"split_type":[0,0,0,0,0,0,0,0,0,0,0],"sum_hessian":[1.3973545E1,6.6766615E0,7.296883E0,5.6751194E0,1.0015422E0,3.7761323E0,3.520751E0,1.7545259E0,2.0216064E0,2.5201573E0,1.0005934E0],"tree_param":{"num_deleted":"0","num_feature":"14","num_nodes":"11","size_leaf_vector":"1"}},{"base_weights":[6.2088355E-2,-6.415387E-1,8.1504387E-1,-8.423316E-2,-8.314638E-4,1.4893836E0,-2.3265955E-1,-8.987586E-3,2.0349655E0,-6.559521E-2,4.8174273E-2,2.8450343E-1,-1.5697964E-3],"categories":[],"categories_nodes":[],"categories_segments":[],"categories_sizes":[],"default_left":[0,0,0,0,0,0,0,0,0,0,0,0,0],"id":9,"left_children":[1,3,5,-1,-1,7,9,-1,11,-1,-1,-1,-1],"loss_changes":[8.447663E0,1.0472822E0,5.7627444E0,0E0,0E0,4.318019E0,1.4853606E0,0E0,6.0403385E0,0E0,0E0,0E0,0E0],"parents":[2147483647,0,0,1,1,2,2,5,5,6,6,8,8],"right_children":[2,4,6,-1,-1,8,10,-1,12,-1,-1,-1,-1],"split_conditions":[9.095621E-1,4.5023766E-1,-5.344833E-2,-8.423316E-2,-8.314638E-4,-4.643847E-2,1.0989548E0,-8.987586E-3,4.158339E-1,-6.559521E-2,4.8174273E-2,2.8450343E-1,-1.5697964E-3],"split_indices":[3,3,13,0,0,1,13,0,9,0,0,0,0],"split_type":[0,0,0,0,0,0,0,0,0,0,0,0,0],"sum_hessian":[1.3958066E1,7.291876E0,6.6661897E0,5.285605E0,2.0062714E0,3.7992716E0,2.866918E0,1.1899804E0,2.6092913E0,1.851624E0,1.0152941E0,1.5927417E0,1.0165495E0],"tree_param":{"num_deleted":"0","num_feature":"14","num_nodes":"13","size_leaf_vector":"1"}},{"base_weights":[6.1288685E-2,-7.136651E-1,6.5173066E-1,-8.330771E-2,-2.0781237E-4,-5.6880653E-2,9.3189174E-1,-2.8071493E-2,1.3333457E0,-2.32577E-2,1.9451052E0,3.283238E-1,5.0434466E-3],"categories":[],"categories_nodes":[],"categories_segments":[],"categories_sizes":[],"default_left":[0,0,0,0,0,0,0,0,0,0,0,0,0],"id":10,"left_children":[1,3,5,-1,-1,-1,7,-1,9,-1,11,-1,-1],"loss_changes":[7.305862E0,5.8817244E-1,3.6103206E0,0E0,0E0,0E0,4.1252937E0,0E0,6.164524E0,0E0,1.0975853E1,0E0,0E0],"parents":[2147483647,0,0,1,1,2,2,6,6,8,8,10,10],"right_children":[2,4,6,-1,-1,-1,8,-1,10,-1,12,-1,-1],"split_conditions":[7.155991E-1,1.2653698E0,-5.3416675E-1,-8.330771E-2,-2.0781237E-4,-5.6880653E-2,-1.1531757E0,-2.8071493E-2,-7.5596887E-1,-2.32577E-2,4.158339E-1,3.283238E-1,5.0434466E-3],"split_indices":[5,0,1,0,0,0,2,0,8,0,9,0,0],"split_type":[0,0,0,0,0,0,0,0,0,0,0,0,0],"sum_hessian":[1.3950314E1,5.9423265E0,8.007987E0,4.9422345E0,1.0000919E0,1.3026477E0,6.70534E0,1.7425764E0,4.9627633E0,1.5682732E0,3.3944902E0,1.5599073E0,1.8345828E0],"tree_param":{"num_deleted":"0","num_feature":"14","num_nodes":"13","size_leaf_vector":"1"}},{"base_weights":[5.7235416E-2,-9.370635E-2,6.689915E-1],"categories":[],"categories_nodes":[],"categories_segments":[],"categories_sizes":[],"default_left":[0,0,0],"id":11,"left_children":[1,-1,-1],"loss_changes":[1.0507682E2,0E0,0E0],"parents":[2147483647,0,0],"right_children":[2,-1,-1],"split_conditions":[3.3807735E0,-9.370635E-2,6.689915E-1],"split_indices":[4,0,0],"split_type":[0,0,0],"sum_hessian":[1.3982555E1,1.2906477E1,1.0760779E0],"tree_param":{"num_deleted":"0","num_feature":"14","num_nodes":"3","size_leaf_vector":"1"}},{"base_weights":[6.890379E-2,-7.8829026E-1,5.298466E-1,-9.2356645E-2,1.1907502E-2],"categories":[],"categories_nodes":[],"categories_segments":[],"categories_sizes":[],"default_left":[0,0,0,0,0],"id":12,"left_children":[1,3,-1,-1,-1],"loss_changes":[7.033411E1,1.7732067E0,0E0,0E0,0E0],"parents":[2147483647,0,0,1,1],"right_children":[2,4,-1,-1,-1],"split_conditions":[4.1175056E0,1.5956137E0,5.298466E-1,-9.2356645E-2,1.1907502E-2],"split_indices":[4,7,0,0,0],"split_type":[0,0,0,0,0],"sum_hessian":[1.3758215E1,1.2550316E1,1.2078993E0,1.0906452E1,1.643863E0],"tree_param":{"num_deleted":"0","num_feature":"14","num_nodes":"5","size_leaf_vector":"1"}},{"base_weights":[7.964339E-2,-9.235744E-2,3.3699887E0,8.929416E-2,4.0782943E-1],"categories":[],"categories_nodes":[],"categories_segments":[],"categories_sizes":[],"default_left":[0,0,0,0,0],"id":13,"left_children":[1,-1,3,-1,-1],"loss_changes":[5.095445E1,0E0,2.677353E0,0E0,0E0],"parents":[2147483647,0,0,2,2],"right_children":[2,-1,4,-1,-1],"split_conditions":[3.3807735E0,-9.235744E-2,9.510884E-1,8.929416E-2,4.0782943E-1],"split_indices":[4,0,0,0,0],"split_type":[0,0,0,0,0],"sum_hessian":[1.3493484E1,1.0891884E1,2.6015997E0,1.0811908E0,1.5204087E0],"tree_param":{"num_deleted":"0","num_feature":"14","num_nodes":"5","size_leaf_vector":"1"}},{"base_weights":[9.0961725E-2,-9.155863E-2,2.6741993E0,9.188936E-2,3.33812E-1],"categories":[],"categories_nodes":[],"categories_segments":[],"categories_sizes":[],"default_left":[0,0,0,0,0],"id":14,"left_children":[1,-1,3,-1,-1],"loss_changes":[3.930565E1,0E0,1.8617458E0,0E0,0E0],"parents":[2147483647,0,0,2,2],"right_children":[2,-1,4,-1,-1],"split_conditions":[3.3807735E0,-9.155863E-2,4.5566907E0,9.188936E-2,3.33812E-1],"split_indices":[4,0,4,0,0],"split_type":[0,0,0,0,0],"sum_hessian":[1.3175008E1,9.945393E0,3.2296154E0,1.5405846E0,1.6890309E0],"tree_param":{"num_deleted":"0","num_feature":"14","num_nodes":"5","size_leaf_vector":"1"}},{"base_weights":[9.969571E-2,-9.071638E-2,2.2085452E0,3.9571263E-2,2.652812E-1],"categories":[],"categories_nodes":[],"categories_segments":[],"categories_sizes":[],"default_left":[0,0,0,0,0],"id":15,"left_children":[1,-1,3,-1,-1],"loss_changes":[3.1424162E1,0E0,2.7909527E0,0E0,0E0],"parents":[2147483647,0,0,2,2],"right_children":[2,-1,4,-1,-1],"split_conditions":[3.3807735E0,-9.071638E-2,9.095621E-1,3.9571263E-2,2.652812E-1],"split_indices":[4,0,3,0,0],"split_type":[0,0,0,0,0],"sum_hessian":[1.2855998E1,9.0871935E0,3.7688043E0,1.1139666E0,2.6548376E0],"tree_param":{"num_deleted":"0","num_feature":"14","num_nodes":"5","size_leaf_vector":"1"}},{"base_weights":[1.0006542E-1,-8.9828804E-2,1.8422203E0,4.464829E-2,2.3272693E-1],"categories":[],"categories_nodes":[],"categories_segments":[],"categories_sizes":[],"default_left":[0,0,0,0,0],"id":16,"left_children":[1,-1,3,-1,-1],"loss_changes":[2.5285141E1,0E0,2.5335598E0,0E0,0E0],"parents":[2147483647,0,0,2,2],"right_children":[2,-1,4,-1,-1],"split_conditions":[3.3807735E0,-8.9828804E-2,7.487465E-1,4.464829E-2,2.3272693E-1],"split_indices":[4,0,6,0,0],"split_type":[0,0,0,0,0],"sum_hessian":[1.2586203E1,8.309035E0,4.277167E0,1.5983566E0,2.6788104E0],"tree_param":{"num_deleted":"0","num_feature":"14","num_nodes":"5","size_leaf_vector":"1"}},{"base_weights":[1.0001979E-1,-7.159623E-1,1.9254849E0,-8.889441E-2,2.280145E-2,6.7651115E-2,2.1978001E-1],"categories":[],"categories_nodes":[],"categories_segments":[],"categories_sizes":[],"default_left":[0,0,0,0,0,0,0],"id":17,"left_children":[1,3,5,-1,-1,-1,-1],"loss_changes":[2.1228443E1,1.8255463E0,5.4798126E-3,0E0,0E0,0E0,0E0],"parents":[2147483647,0,0,1,1,2,2],"right_children":[2,4,6,-1,-1,-1,-1],"split_conditions":[4.1175056E0,3.3807735E0,4.8931413E0,-8.889441E-2,2.280145E-2,6.7651115E-2,2.1978001E-1],"split_indices":[4,4,4,0,0,0,0],"split_type":[0,0,0,0,0,0,0],"sum_hessian":[1.2326114E1,8.938431E0,3.3876827E0,7.603419E0,1.3350117E0,1.2301043E0,2.1575785E0],"tree_param":{"num_deleted":"0","num_feature":"14","num_nodes":"7","size_leaf_vector":"1"}},{"base_weights":[1.05078205E-1,-6.970144E-1,1.6844124E0,-8.834477E-2,2.423205E-2,5.900239E-2,1.948752E-1],"categories":[],"categories_nodes":[],"categories_segments":[],"categories_sizes":[],"default_left":[0,0,0,0,0,0,0],"id":18,"left_children":[1,3,5,-1,-1,-1,-1],"loss_changes":[1.7633738E1,1.8469939E0,2.008915E-1,0E0,0E0,0E0,0E0],"parents":[2147483647,0,0,1,1,2,2],"right_children":[2,4,6,-1,-1,-1,-1],"split_conditions":[4.1175056E0,1.5956137E0,9.345231E-1,-8.834477E-2,2.423205E-2,5.900239E-2,1.948752E-1],"split_indices":[4,7,0,0,0,0,0],"split_type":[0,0,0,0,0,0,0],"sum_hessian":[1.1993399E1,8.324381E0,3.6690173E0,6.9954624E0,1.3289188E0,1.3426011E0,2.3264163E0],"tree_param":{"num_deleted":"0","num_feature":"14","num_nodes":"7","size_leaf_vector":"1"}},{"base_weights":[1.0836023E-1,-8.708216E-2,1.2742296E0,-1.3707297E-2,1.6611449E0,5.845158E-2,2.0564662E-1],"categories":[],"categories_nodes":[],"categories_segments":[],"categories_sizes":[],"default_left":[0,0,0,0,0,0,0],"id":19,"left_children":[1,-1,3,-1,5,-1,-1],"loss_changes":[1.5577274E1,0E0,3.6083536E0,0E0,8.984461E-1,0E0,0E0],"parents":[2147483647,0,0,2,2,4,4],"right_children":[2,-1,4,-1,6,-1,-1],"split_conditions":[3.3807735E0,-8.708216E-2,-2.7588862E-1,-1.3707297E-2,1.1336774E0,5.845158E-2,2.0564662E-1],"split_indices":[4,0,1,0,7,0,0],"split_type":[0,0,0,0,0,0,0],"sum_hessian":[1.1673153E1,6.4820924E0,5.1910605E0,1.2558781E0,3.9351826E0,1.7225434E0,2.2126393E0],"tree_param":{"num_deleted":"0","num_feature":"14","num_nodes":"7","size_leaf_vector":"1"}},{"base_weights":[1.1013728E-1,-8.601013E-2,1.1486058E0,-1.3040523E-2,1.482281E0,6.688393E-1,1.9813767E-1,-2.2321053E-2,1.24495916E-1],"categories":[],"categories_nodes":[],"categories_segments":[],"categories_sizes":[],"default_left":[0,0,0,0,0,0,0,0,0],"id":20,"left_children":[1,-1,3,-1,5,7,-1,-1,-1],"loss_changes":[1.3411812E1,0E0,2.9178638E0,0E0,7.631836E-1,2.0589623E0,0E0,0E0,0E0],"parents":[2147483647,0,0,2,2,4,4,5,5],"right_children":[2,-1,4,-1,6,8,-1,-1,-1],"split_conditions":[3.3807735E0,-8.601013E-2,-2.7588862E-1,-1.3040523E-2,1.3133954E0,4.9015203E0,1.9813767E-1,-2.2321053E-2,1.24495916E-1],"split_indices":[4,0,1,0,7,4,0,0,0],"split_type":[0,0,0,0,0,0,0,0,0],"sum_hessian":[1.1330647E1,5.946555E0,5.3840923E0,1.2400477E0,4.1440444E0,2.4656134E0,1.6784312E0,1.2078972E0,1.2577163E0],"tree_param":{"num_deleted":"0","num_feature":"14","num_nodes":"9","size_leaf_vector":"1"}},{"base_weights":[1.16363026E-1,-8.488982E-2,1.0601652E0,-1.24054095E-2,1.3596277E0,4.90541E-2,1.6731642E-1],"categories":[],"categories_nodes":[],"categories_segments":[],"categories_sizes":[],"default_left":[0,0,0,0,0,0,0],"id":21,"left_children":[1,-1,3,-1,5,-1,-1],"loss_changes":[1.1782036E1,0E0,2.4681869E0,0E0,6.123085E-1,0E0,0E0],"parents":[2147483647,0,0,2,2,4,4],"right_children":[2,-1,4,-1,6,-1,-1],"split_conditions":[3.3807735E0,-8.488982E-2,-2.7588862E-1,-1.24054095E-2,1.1336774E0,4.90541E-2,1.6731642E-1],"split_indices":[4,0,1,0,7,0,0],"split_type":[0,0,0,0,0,0,0],"sum_hessian":[1.0944981E1,5.4606886E0,5.4842925E0,1.2251608E0,4.259132E0,1.8090893E0,2.4500425E0],"tree_param":{"num_deleted":"0","num_feature":"14","num_nodes":"7","size_leaf_vector":"1"}},{"base_weights":[1.1544857E-1,-8.372204E-2,9.65975E-1,1.2256908E0,-2.0684998E-2,2.1458147E-2,1.5188557E-1],"categories":[],"categories_nodes":[],"categories_segments":[],"categories_sizes":[],"default_left":[0,0,0,0,0,0,0],"id":22,"left_children":[1,-1,3,5,-1,-1,-1],"loss_changes":[1.0229552E1,0E0,2.2660298E0,1.3202734E0,0E0,0E0,0E0],"parents":[2147483647,0,0,2,2,3,3],"right_children":[2,-1,4,6,-1,-1,-1],"split_conditions":[3.3807735E0,-8.372204E-2,3.6650878E-1,-5.8927894E-1,-2.0684998E-2,2.1458147E-2,1.5188557E-1],"split_indices":[4,0,2,8,0,0,0],"split_type":[0,0,0,0,0,0,0],"sum_hessian":[1.0626762E1,5.0197825E0,5.6069803E0,4.5535455E0,1.0534344E0,1.4128052E0,3.1407404E0],"tree_param":{"num_deleted":"0","num_feature":"14","num_nodes":"7","size_leaf_vector":"1"}},{"base_weights":[1.0868249E-1,-6.272662E-1,1.0835154E0,-8.429268E-2,2.4034629E-2,2.6779046E-2,1.350142E-1],"categories":[],"categories_nodes":[],"categories_segments":[],"categories_sizes":[],"default_left":[0,0,0,0,0,0,0],"id":23,"left_children":[1,3,5,-1,-1,-1,-1],"loss_changes":[8.887E0,1.5408113E0,7.88538E-1,0E0,0E0,0E0,0E0],"parents":[2147483647,0,0,1,1,2,2],"right_children":[2,4,6,-1,-1,-1,-1],"split_conditions":[4.1175056E0,1.5956137E0,7.487465E-1,-8.429268E-2,2.4034629E-2,2.6779046E-2,1.350142E-1],"split_indices":[4,7,6,0,0,0,0],"split_type":[0,0,0,0,0,0,0],"sum_hessian":[1.0439975E1,6.15204E0,4.2879343E0,4.9500656E0,1.2019746E0,1.5500457E0,2.7378886E0],"tree_param":{"num_deleted":"0","num_feature":"14","num_nodes":"7","size_leaf_vector":"1"}},{"base_weights":[1.0709546E-1,-8.14968E-2,8.0674565E-1,-2.0606851E-2,1.077741E0,4.100632E-1,1.4747433E-1,-5.832965E-2,1.1802598E-1],"categories":[],"categories_nodes":[],"categories_segments":[],"categories_sizes":[],"default_left":[0,0,0,0,0,0,0,0,0],"id":24,"left_children":[1,-1,3,-1,5,7,-1,-1,-1],"loss_changes":[7.8698497E0,0E0,2.1046948E0,0E0,8.721657E-1,3.3377461E0,0E0,0E0,0E0],"parents":[2147483647,0,0,2,2,4,4,5,5],"right_children":[2,-1,4,-1,6,8,-1,-1,-1],"split_conditions":[3.3807735E0,-8.14968E-2,5.5923814E-1,-2.0606851E-2,4.8417616E0,1.4958634E0,1.4747433E-1,-5.832965E-2,1.1802598E-1],"split_indices":[4,0,3,0,4,7,0,0,0],"split_type":[0,0,0,0,0,0,0,0,0],"sum_hessian":[1.0179869E1,4.320756E0,5.8591123E0,1.2873557E0,4.571757E0,2.4627712E0,2.1089857E0,1.1815434E0,1.2812277E0],"tree_param":{"num_deleted":"0","num_feature":"14","num_nodes":"9","size_leaf_vector":"1"}},{"base_weights":[1.0752667E-1,-8.020345E-2,7.5535023E-1,-1.833362E-2,1.0145093E0,1.8414302E-2,1.3410316E-1],"categories":[],"categories_nodes":[],"categories_segments":[],"categories_sizes":[],"default_left":[0,0,0,0,0,0,0],"id":25,"left_children":[1,-1,3,-1,5,-1,-1],"loss_changes":[6.979948E0,0E0,1.8482113E0,0E0,1.2463417E0,0E0,0E0],"parents":[2147483647,0,0,2,2,4,4],"right_children":[2,-1,4,-1,6,-1,-1],"split_conditions":[3.3807735E0,-8.020345E-2,7.155991E-1,-1.833362E-2,4.5566907E0,1.8414302E-2,1.3410316E-1],"split_indices":[4,0,5,0,4,0,0],"split_type":[0,0,0,0,0,0,0],"sum_hessian":[9.817636E0,3.9848113E0,5.8328238E0,1.3252563E0,4.5075674E0,1.713636E0,2.7939315E0],"tree_param":{"num_deleted":"0","num_feature":"14","num_nodes":"7","size_leaf_vector":"1"}},{"base_weights":[1.0299328E-1,-7.887068E-2,6.9605917E-1,-2.1275017E-2,9.417486E-1,1.5541944E-2,1.2196008E-1],"categories":[],"categories_nodes":[],"categories_segments":[],"categories_sizes":[],"default_left":[0,0,0,0,0,0,0],"id":26,"left_children":[1,-1,3,-1,5,-1,-1],"loss_changes":[6.1238832E0,0E0,1.7325943E0,0E0,1.0309353E0,0E0,0E0],"parents":[2147483647,0,0,2,2,4,4],"right_children":[2,-1,4,-1,6,-1,-1],"split_conditions":[3.3807735E0,-7.887068E-2,5.5923814E-1,-2.1275017E-2,7.487465E-1,1.5541944E-2,1.2196008E-1],"split_indices":[4,0,3,0,6,0,0],"split_type":[0,0,0,0,0,0,0],"sum_hessian":[9.541809E0,3.6795568E0,5.862252E0,1.27608E0,4.586172E0,1.6045662E0,2.9816058E0],"tree_param":{"num_deleted":"0","num_feature":"14","num_nodes":"7","size_leaf_vector":"1"}},{"base_weights":[9.6988425E-2,-7.750174E-2,6.3875103E-1,-2.0616664E-2,8.8573647E-1,3.362176E-1,1.3795125E-1,-5.623727E-2,8.694168E-2],"categories":[],"categories_nodes":[],"categories_segments":[],"categories_sizes":[],"default_left":[0,0,0,0,0,0,0,0,0],"id":27,"left_children":[1,-1,3,-1,5,7,-1,-1,-1],"loss_changes":[5.3649726E0,0E0,1.6238554E0,0E0,1.037507E0,2.3771584E0,0E0,0E0,0E0],"parents":[2147483647,0,0,2,2,4,4,5,5],"right_children":[2,-1,4,-1,6,8,-1,-1,-1],"split_conditions":[3.3807735E0,-7.750174E-2,-2.7588862E-1,-2.0616664E-2,1.4075891E0,4.871483E0,1.3795125E-1,-5.623727E-2,8.694168E-2],"split_indices":[4,0,1,0,7,4,0,0,0],"split_type":[0,0,0,0,0,0,0,0,0],"sum_hessian":[9.308471E0,3.4020615E0,5.9064093E0,1.3733965E0,4.533013E0,2.9409585E0,1.5920546E0,1.0748391E0,1.8661194E0],"tree_param":{"num_deleted":"0","num_feature":"14","num_nodes":"9","size_leaf_vector":"1"}},{"base_weights":[9.589142E-2,-7.610031E-2,6.0159254E-1,-1.9636383E-2,8.3330697E-1,3.1345677E-1,1.2926619E-1,-5.4724883E-2,8.108904E-2],"categories":[],"categories_nodes":[],"categories_segments":[],"categories_sizes":[],"default_left":[0,0,0,0,0,0,0,0,0],"id":28,"left_children":[1,-1,3,-1,5,7,-1,-1,-1],"loss_changes":[4.787473E0,0E0,1.4286788E0,0E0,9.06487E-1,2.1121871E0,0E0,0E0,0E0],"parents":[2147483647,0,0,2,2,4,4,5,5],"right_children":[2,-1,4,-1,6,8,-1,-1,-1],"split_conditions":[3.3807735E0,-7.610031E-2,-2.7588862E-1,-1.9636383E-2,1.4075891E0,4.871483E0,1.2926619E-1,-5.4724883E-2,8.108904E-2],"split_indices":[4,0,1,0,7,4,0,0,0],"split_type":[0,0,0,0,0,0,0,0,0],"sum_hessian":[8.99154E0,3.1496725E0,5.8418674E0,1.3489704E0,4.492897E0,2.896886E0,1.5960108E0,1.0243379E0,1.8725483E0],"tree_param":{"num_deleted":"0","num_feature":"14","num_nodes":"9","size_leaf_vector":"1"}},{"base_weights":[9.407774E-2,-3.833683E-1,9.4205365E-2,-8.175216E-2,4.78632E-2],"categories":[],"categories_nodes":[],"categories_segments":[],"categories_sizes":[],"default_left":[0,0,0,0,0],"id":29,"left_children":[1,3,-1,-1,-1],"loss_changes":[4.28516E0,2.9778938E0,0E0,0E0,0E0],"parents":[2147483647,0,0,1,1],"right_children":[2,4,-1,-1,-1],"split_conditions":[4.8931413E0,1.5144129E0,9.4205365E-2,-8.175216E-2,4.78632E-2],"split_indices":[4,7,0,0,0],"split_type":[0,0,0,0,0],"sum_hessian":[8.69219E0,5.9116077E0,2.780582E0,3.9658005E0,1.9458071E0],"tree_param":{"num_deleted":"0","num_feature":"14","num_nodes":"5","size_leaf_vector":"1"}},{"base_weights":[9.150949E-2,-7.367342E-2,5.448013E-1,-8.918098E-2,8.453302E-1,1.3070402E-2,-2.6108837E-2,1.8033389E-2,1.1476468E-1],"categories":[],"categories_nodes":[],"categories_segments":[],"categories_sizes":[],"default_left":[0,0,0,0,0,0,0,0,0],"id":30,"left_children":[1,-1,3,5,7,-1,-1,-1,-1],"loss_changes":[3.9545121E0,0E0,1.3502986E0,1.496587E-1,7.248466E-1,0E0,0E0,0E0,0E0],"parents":[2147483647,0,0,2,2,3,3,4,4],"right_children":[2,-1,4,6,8,-1,-1,-1,-1],"split_conditions":[3.3807735E0,-7.367342E-2,7.487465E-1,-4.9343905E-1,1.1374321E0,1.3070402E-2,-2.6108837E-2,1.8033389E-2,1.1476468E-1],"split_indices":[4,0,6,2,3,0,0,0,0],"split_type":[0,0,0,0,0,0,0,0,0],"sum_hessian":[8.46403E0,2.7726374E0,5.6913934E0,2.0564506E0,3.6349425E0,1.0074785E0,1.048972E0,1.634997E0,1.9999455E0],"tree_param":{"num_deleted":"0","num_feature":"14","num_nodes":"9","size_leaf_vector":"1"}},{"base_weights":[8.856198E-2,-7.220458E-2,5.098187E-1,-2.319095E-2,7.236898E-1,-1.2136066E-3,9.182696E-1,4.342069E-1,1.23426355E-1,-5.6193746E-3,6.952121E-2],"categories":[],"categories_nodes":[],"categories_segments":[],"categories_sizes":[],"default_left":[0,0,0,0,0,0,0,0,0,0,0],"id":31,"left_children":[1,-1,3,-1,5,-1,7,9,-1,-1,-1],"loss_changes":[3.5262983E0,0E0,1.2262512E0,0E0,7.8737736E-1,0E0,1.2191677E-1,4.539504E-1,0E0,0E0,0E0],"parents":[2147483647,0,0,2,2,4,4,6,6,7,7],"right_children":[2,-1,4,-1,6,-1,8,10,-1,-1,-1],"split_conditions":[3.3807735E0,-7.220458E-2,5.5923814E-1,-2.319095E-2,-6.236364E-1,-1.2136066E-3,5.4952407E0,1.3599691E0,1.23426355E-1,-5.6193746E-3,6.952121E-2],"split_indices":[4,0,3,0,8,0,4,0,0,0,0],"split_type":[0,0,0,0,0,0,0,0,0,0,0],"sum_hessian":[8.248686E0,2.5766025E0,5.6720834E0,1.250583E0,4.4215E0,1.1207782E0,3.3007221E0,2.2413526E0,1.0593694E0,1.0511179E0,1.1902348E0],"tree_param":{"num_deleted":"0","num_feature":"14","num_nodes":"11","size_leaf_vector":"1"}},{"base_weights":[9.0543896E-2,-3.6080623E-1,8.119522E-1,-7.912268E-2,4.214741E-2,3.6003064E-2,1.0371649E-1],"categories":[],"categories_nodes":[],"categories_segments":[],"categories_sizes":[],"default_left":[0,0,0,0,0,0,0],"id":32,"left_children":[1,3,5,-1,-1,-1,-1],"loss_changes":[3.2433043E0,2.4433503E0,1.2829065E-2,0E0,0E0,0E0,0E0],"parents":[2147483647,0,0,1,1,2,2],"right_children":[2,4,6,-1,-1,-1,-1],"split_conditions":[4.8931413E0,1.5144129E0,6.569687E0,-7.912268E-2,4.214741E-2,3.6003064E-2,1.0371649E-1],"split_indices":[4,7,4,0,0,0,0],"split_type":[0,0,0,0,0,0,0],"sum_hessian":[8.061048E0,5.266139E0,2.794909E0,3.3896654E0,1.8764734E0,1.7938726E0,1.0010364E0],"tree_param":{"num_deleted":"0","num_feature":"14","num_nodes":"7","size_leaf_vector":"1"}},{"base_weights":[9.358336E-2,-6.970668E-2,4.7409606E-1,-1.0782682E-1,7.5439113E-1,8.581517E-3,-2.4740478E-2,1.522164E-2,1.0292055E-1],"categories":[],"categories_nodes":[],"categories_segments":[],"categories_sizes":[],"default_left":[0,0,0,0,0,0,0,0,0],"id":33,"left_children":[1,-1,3,5,7,-1,-1,-1,-1],"loss_changes":[2.9972582E0,0E0,1.1544976E0,1.0268822E-1,5.98871E-1,0E0,0E0,0E0,0E0],"parents":[2147483647,0,0,2,2,3,3,4,4],"right_children":[2,-1,4,6,8,-1,-1,-1,-1],"split_conditions":[3.3807735E0,-6.970668E-2,7.487465E-1,-4.443394E-1,1.1374321E0,8.581517E-3,-2.4740478E-2,1.522164E-2,1.0292055E-1],"split_indices":[4,0,6,2,3,0,0,0,0],"split_type":[0,0,0,0,0,0,0,0,0],"sum_hessian":[7.8640857E0,2.2847636E0,5.579322E0,2.0137885E0,3.5655334E0,1.0048716E0,1.008917E0,1.604228E0,1.9613054E0],"tree_param":{"num_deleted":"0","num_feature":"14","num_nodes":"9","size_leaf_vector":"1"}},{"base_weights":[8.925427E-2,-3.4924284E-1,7.448537E-1,-7.712596E-2,3.747869E-2,3.2167785E-2,9.5594704E-2],"categories":[],"categories_nodes":[],"categories_segments":[],"categories_sizes":[],"default_left":[0,0,0,0,0,0,0],"id":34,"left_children":[1,3,5,-1,-1,-1,-1],"loss_changes":[2.7553995E0,2.0862827E0,3.176236E-2,0E0,0E0,0E0,0E0],"parents":[2147483647,0,0,1,1,2,2],"right_children":[2,4,6,-1,-1,-1,-1],"split_conditions":[4.8931413E0,1.5144129E0,6.569687E0,-7.712596E-2,3.747869E-2,3.2167785E-2,9.5594704E-2],"split_indices":[4,7,4,0,0,0,0],"split_type":[0,0,0,0,0,0,0],"sum_hessian":[7.679832E0,4.8818817E0,2.79795E0,3.042981E0,1.8389008E0,1.771172E0,1.0267781E0],"tree_param":{"num_deleted":"0","num_feature":"14","num_nodes":"7","size_leaf_vector":"1"}},{"base_weights":[9.122009E-2,-6.721063E-2,4.3559137E-1,-2.2363234E-2,6.452185E-1,2.2026904E-1,1.0031908E-1,-2.688619E-2,5.1448673E-2],"categories":[],"categories_nodes":[],"categories_segments":[],"categories_sizes":[],"default_left":[0,0,0,0,0,0,0,0,0],"id":35,"left_children":[1,-1,3,-1,5,7,-1,-1,-1],"loss_changes":[2.528082E0,0E0,1.037929E0,0E0,5.6455374E-1,6.625056E-1,0E0,0E0,0E0],"parents":[2147483647,0,0,2,2,4,4,5,5],"right_children":[2,-1,4,-1,6,8,-1,-1,-1],"split_conditions":[3.3807735E0,-6.721063E-2,-2.7588862E-1,-2.2363234E-2,1.4075891E0,4.9015203E0,1.0031908E-1,-2.688619E-2,5.1448673E-2],"split_indices":[4,0,1,0,7,4,0,0,0],"split_type":[0,0,0,0,0,0,0,0,0],"sum_hessian":[7.503588E0,2.0369146E0,5.466674E0,1.3028221E0,4.1638517E0,2.64239E0,1.5214618E0,1.024823E0,1.617567E0],"tree_param":{"num_deleted":"0","num_feature":"14","num_nodes":"9","size_leaf_vector":"1"}},{"base_weights":[8.781554E-2,-3.3405954E-1,6.7340803E-1,-7.466546E-2,3.3136897E-2,8.663388E-2,7.1975696E-3],"categories":[],"categories_nodes":[],"categories_segments":[],"categories_sizes":[],"default_left":[0,0,0,0,0,0,0],"id":36,"left_children":[1,3,5,-1,-1,-1,-1],"loss_changes":[2.2778013E0,1.7570026E0,3.798741E-1,0E0,0E0,0E0,0E0],"parents":[2147483647,0,0,1,1,2,2],"right_children":[2,4,6,-1,-1,-1,-1],"split_conditions":[4.8931413E0,1.5144129E0,-3.2864904E-1,-7.466546E-2,3.3136897E-2,8.663388E-2,7.1975696E-3],"split_indices":[4,7,13,0,0,0,0],"split_type":[0,0,0,0,0,0,0],"sum_hessian":[7.309528E0,4.498346E0,2.8111818E0,2.7013338E0,1.7970122E0,1.794934E0,1.0162479E0],"tree_param":{"num_deleted":"0","num_feature":"14","num_nodes":"7","size_leaf_vector":"1"}},{"base_weights":[8.646568E-2,-6.474272E-2,4.0201637E-1,-2.3674926E-2,6.0768074E-1,4.91845E-3,8.1654154E-2],"categories":[],"categories_nodes":[],"categories_segments":[],"categories_sizes":[],"default_left":[0,0,0,0,0,0,0],"id":37,"left_children":[1,-1,3,-1,5,-1,-1],"loss_changes":[2.141728E0,0E0,9.7130346E-1,0E0,5.483048E-1,0E0,0E0],"parents":[2147483647,0,0,2,2,4,4],"right_children":[2,-1,4,-1,6,-1,-1],"split_conditions":[3.3807735E0,-6.474272E-2,7.155991E-1,-2.3674926E-2,4.5566907E0,4.91845E-3,8.1654154E-2],"split_indices":[4,0,5,0,4,0,0],"split_type":[0,0,0,0,0,0,0],"sum_hessian":[7.1243997E0,1.8259512E0,5.2984486E0,1.253647E0,4.0448017E0,1.4372003E0,2.6076012E0],"tree_param":{"num_deleted":"0","num_feature":"14","num_nodes":"7","size_leaf_vector":"1"}},{"base_weights":[7.8585856E-2,-6.3243784E-2,3.7379852E-1,-1.5009145E-2,6.4069945E-1,1.0202284E-2,9.009477E-2],"categories":[],"categories_nodes":[],"categories_segments":[],"categories_sizes":[],"default_left":[0,0,0,0,0,0,0],"id":38,"left_children":[1,-1,3,-1,5,-1,-1],"loss_changes":[1.9108793E0,0E0,9.7224224E-1,0E0,5.165894E-1,0E0,0E0],"parents":[2147483647,0,0,2,2,4,4],"right_children":[2,-1,4,-1,6,-1,-1],"split_conditions":[3.3807735E0,-6.3243784E-2,7.487465E-1,-1.5009145E-2,1.1374321E0,1.0202284E-2,9.009477E-2],"split_indices":[4,0,6,0,3,0,0],"split_type":[0,0,0,0,0,0,0],"sum_hessian":[6.977367E0,1.7119061E0,5.265461E0,1.924865E0,3.340596E0,1.5416411E0,1.798955E0],"tree_param":{"num_deleted":"0","num_feature":"14","num_nodes":"7","size_leaf_vector":"1"}},{"base_weights":[7.465316E-2,-6.175542E-2,3.5277575E-1,-1.40988E-2,6.0418206E-1,9.554478E-3,8.5480794E-2],"categories":[],"categories_nodes":[],"categories_segments":[],"categories_sizes":[],"default_left":[0,0,0,0,0,0,0],"id":39,"left_children":[1,-1,3,-1,5,-1,-1],"loss_changes":[1.7249472E0,0E0,8.5741884E-1,0E0,4.6792245E-1,0E0,0E0],"parents":[2147483647,0,0,2,2,4,4],"right_children":[2,-1,4,-1,6,-1,-1],"split_conditions":[3.3807735E0,-6.175542E-2,7.487465E-1,-1.40988E-2,1.1374321E0,9.554478E-3,8.5480794E-2],"split_indices":[4,0,6,0,3,0,0],"split_type":[0,0,0,0,0,0,0],"sum_hessian":[6.828282E0,1.6073581E0,5.220924E0,1.90962E0,3.3113039E0,1.5489608E0,1.7623429E0],"tree_param":{"num_deleted":"0","num_feature":"14","num_nodes":"7","size_leaf_vector":"1"}},{"base_weights":[7.069226E-2,-3.1863967E-1,5.697344E-1,-7.1562685E-2,2.9750248E-2,7.616173E-2,2.8209803E-3],"categories":[],"categories_nodes":[],"categories_segments":[],"categories_sizes":[],"default_left":[0,0,0,0,0,0,0],"id":40,"left_children":[1,3,5,-1,-1,-1,-1],"loss_changes":[1.6754628E0,1.426269E0,3.6593103E-1,0E0,0E0,0E0,0E0],"parents":[2147483647,0,0,1,1,2,2],"right_children":[2,4,6,-1,-1,-1,-1],"split_conditions":[4.8931413E0,1.5144129E0,-3.2864904E-1,-7.1562685E-2,2.9750248E-2,7.616173E-2,2.8209803E-3],"split_indices":[4,7,13,0,0,0,0],"split_type":[0,0,0,0,0,0,0],"sum_hessian":[6.6890197E0,3.960612E0,2.7284076E0,2.3104804E0,1.6501317E0,1.7144728E0,1.013935E0],"tree_param":{"num_deleted":"0","num_feature":"14","num_nodes":"7","size_leaf_vector":"1"}},{"base_weights":[6.925445E-2,-3.050764E-1,5.3674E-1,-6.996124E-2,2.7778903E-2,7.189316E-2,2.677013E-3],"categories":[],"categories_nodes":[],"categories_segments":[],"categories_sizes":[],"default_left":[0,0,0,0,0,0,0],"id":41,"left_children":[1,3,5,-1,-1,-1,-1],"loss_changes":[1.4812925E0,1.3024637E0,3.2549202E-1,0E0,0E0,0E0,0E0],"parents":[2147483647,0,0,1,1,2,2],"right_children":[2,4,6,-1,-1,-1,-1],"split_conditions":[4.8931413E0,1.5144129E0,-3.2864904E-1,-6.996124E-2,2.7778903E-2,7.189316E-2,2.677013E-3],"split_indices":[4,7,13,0,0,0,0],"split_type":[0,0,0,0,0,0,0],"sum_hessian":[6.529079E0,3.8187177E0,2.710361E0,2.1578152E0,1.6609026E0,1.695039E0,1.015322E0],"tree_param":{"num_deleted":"0","num_feature":"14","num_nodes":"7","size_leaf_vector":"1"}},{"base_weights":[6.735719E-2,-5.84674E-2,3.1794512E-1,-2.6029555E-2,5.115615E-1,-5.6264957E-4,7.282558E-2],"categories":[],"categories_nodes":[],"categories_segments":[],"categories_sizes":[],"default_left":[0,0,0,0,0,0,0],"id":42,"left_children":[1,-1,3,-1,5,-1,-1],"loss_changes":[1.392092E0,0E0,8.027192E-1,0E0,5.4401207E-1,0E0,0E0],"parents":[2147483647,0,0,2,2,4,4],"right_children":[2,-1,4,-1,6,-1,-1],"split_conditions":[3.3807735E0,-5.84674E-2,5.5923814E-1,-2.6029555E-2,7.487465E-1,-5.6264957E-4,7.282558E-2],"split_indices":[4,0,3,0,6,0,0],"split_type":[0,0,0,0,0,0,0],"sum_hessian":[6.3822713E0,1.4017364E0,4.980535E0,1.1629539E0,3.8175812E0,1.4148262E0,2.402755E0],"tree_param":{"num_deleted":"0","num_feature":"14","num_nodes":"7","size_leaf_vector":"1"}},{"base_weights":[5.9627384E-2,-3.0056533E-1,4.968445E-1,-6.8197034E-2,2.4890099E-2,6.724904E-2,1.6276898E-3],"categories":[],"categories_nodes":[],"categories_segments":[],"categories_sizes":[],"default_left":[0,0,0,0,0,0,0],"id":43,"left_children":[1,3,5,-1,-1,-1,-1],"loss_changes":[1.2935579E0,1.1351959E0,2.9789883E-1,0E0,0E0,0E0,0E0],"parents":[2147483647,0,0,1,1,2,2],"right_children":[2,4,6,-1,-1,-1,-1],"split_conditions":[4.8931413E0,1.5144129E0,-3.2864904E-1,-6.8197034E-2,2.4890099E-2,6.724904E-2,1.6276898E-3],"split_indices":[4,7,13,0,0,0,0],"split_type":[0,0,0,0,0,0,0],"sum_hessian":[6.2657237E0,3.6068447E0,2.658879E0,1.9866717E0,1.620173E0,1.6547182E0,1.0041609E0],"tree_param":{"num_deleted":"0","num_feature":"14","num_nodes":"7","size_leaf_vector":"1"}},{"base_weights":[5.7718143E-2,-4.000301E-1,3.757961E-1,-5.8725674E-2,1.516679E-3,9.371349E-2,7.1029134E-2,-5.012728E-2,6.427761E-2],"categories":[],"categories_nodes":[],"categories_segments":[],"categories_sizes":[],"default_left":[0,0,0,0,0,0,0,0,0],"id":44,"left_children":[1,3,5,-1,-1,7,-1,-1,-1],"loss_changes":[1.1887667E0,2.7386653E-1,3.7914032E-1,0E0,0E0,1.535709E0,0E0,0E0,0E0],"parents":[2147483647,0,0,1,1,2,2,5,5],"right_children":[2,4,6,-1,-1,8,-1,-1,-1],"split_conditions":[4.1175056E0,1.529202E0,6.569687E0,-5.8725674E-2,1.516679E-3,6.9774455E-1,7.1029134E-2,-5.012728E-2,6.427761E-2],"split_indices":[4,7,4,0,0,1,0,0,0],"split_type":[0,0,0,0,0,0,0,0,0],"sum_hessian":[6.1321397E0,2.40846E0,3.7236798E0,1.3743243E0,1.0341355E0,2.7145996E0,1.0090803E0,1.3445885E0,1.370011E0],"tree_param":{"num_deleted":"0","num_feature":"14","num_nodes":"9","size_leaf_vector":"1"}},{"base_weights":[5.6726E-2,-5.5295885E-2,2.8364894E-1,-2.553708E-2,4.776905E-1,1.0854164E-1,7.875093E-2,-2.4358358E-2,4.0698055E-2],"categories":[],"categories_nodes":[],"categories_segments":[],"categories_sizes":[],"default_left":[0,0,0,0,0,0,0,0,0],"id":45,"left_children":[1,-1,3,-1,5,7,-1,-1,-1],"loss_changes":[1.1224058E0,0E0,7.230778E-1,0E0,4.376608E-1,4.403616E-1,0E0,0E0,0E0],"parents":[2147483647,0,0,2,2,4,4,5,5],"right_children":[2,-1,4,-1,6,8,-1,-1,-1],"split_conditions":[3.3807735E0,-5.5295885E-2,-2.7588862E-1,-2.553708E-2,1.4075891E0,-3.8499403E-1,7.875093E-2,-2.4358358E-2,4.0698055E-2],"split_indices":[4,0,1,0,7,11,0,0,0],"split_type":[0,0,0,0,0,0,0,0,0],"sum_hessian":[5.9790335E0,1.2320515E0,4.746982E0,1.1728657E0,3.5741162E0,2.2470715E0,1.3270448E0,1.1151382E0,1.1319332E0],"tree_param":{"num_deleted":"0","num_feature":"14","num_nodes":"9","size_leaf_vector":"1"}},{"base_weights":[5.392268E-2,-3.8408098E-1,3.5182637E-1,-5.634245E-2,9.4985275E-4,-4.369229E-3,5.354479E-2],"categories":[],"categories_nodes":[],"categories_segments":[],"categories_sizes":[],"default_left":[0,0,0,0,0,0,0],"id":46,"left_children":[1,3,5,-1,-1,-1,-1],"loss_changes":[1.0293367E0,2.3491701E-1,3.575297E-1,0E0,0E0,0E0,0E0],"parents":[2147483647,0,0,1,1,2,2],"right_children":[2,4,6,-1,-1,-1,-1],"split_conditions":[4.1175056E0,1.529202E0,7.487465E-1,-5.634245E-2,9.4985275E-4,-4.369229E-3,5.354479E-2],"split_indices":[4,7,6,0,0,0,0],"split_type":[0,0,0,0,0,0,0],"sum_hessian":[5.853058E0,2.2522812E0,3.6007764E0,1.2507905E0,1.0014907E0,1.3832735E0,2.217503E0],"tree_param":{"num_deleted":"0","num_feature":"14","num_nodes":"7","size_leaf_vector":"1"}},{"base_weights":[4.7855705E-2,-5.416238E-2,2.6213717E-1,-1.9863394E-1,6.927703E-2,-5.3314697E-2,1.655383E-2],"categories":[],"categories_nodes":[],"categories_segments":[],"categories_sizes":[],"default_left":[0,0,0,0,0,0,0],"id":47,"left_children":[1,-1,3,5,-1,-1,-1],"loss_changes":[9.985899E-1,0E0,1.2581977E0,5.152894E-1,0E0,0E0,0E0],"parents":[2147483647,0,0,2,2,3,3],"right_children":[2,-1,4,6,-1,-1,-1],"split_conditions":[4.5023766E-1,-5.416238E-2,4.5566907E0,1.5144129E0,6.927703E-2,-5.3314697E-2,1.655383E-2],"split_indices":[3,0,4,7,0,0,0],"split_type":[0,0,0,0,0,0,0],"sum_hessian":[5.7815647E0,1.1340932E0,4.6474714E0,2.5054338E0,2.1420376E0,1.064048E0,1.4413857E0],"tree_param":{"num_deleted":"0","num_feature":"14","num_nodes":"7","size_leaf_vector":"1"}},{"base_weights":[4.035365E-2,-1.7032081E-1,6.1295945E-2,-6.151091E-2,2.44403E-1,-1.1205464E-2,4.5934003E-2],"categories":[],"categories_nodes":[],"categories_segments":[],"categories_sizes":[],"default_left":[0,0,0,0,0,0,0],"id":48,"left_children":[1,3,-1,-1,5,-1,-1],"loss_changes":[9.066806E-1,1.1915169E0,0E0,0E0,3.300884E-1,0E0,0E0],"parents":[2147483647,0,0,1,1,4,4],"right_children":[2,4,-1,-1,6,-1,-1],"split_conditions":[6.562671E0,4.4517696E-1,6.1295945E-2,-6.151091E-2,1.1247449E0,-1.1205464E-2,4.5934003E-2],"split_indices":[4,1,0,0,5,0,0],"split_type":[0,0,0,0,0,0,0],"sum_hessian":[5.6505694E0,4.6443577E0,1.0062116E0,2.0078142E0,2.6365438E0,1.1718227E0,1.464721E0],"tree_param":{"num_deleted":"0","num_feature":"14","num_nodes":"7","size_leaf_vector":"1"}},{"base_weights":[4.183322E-2,-5.1969286E-2,2.4816638E-1,-2.5557516E-2,4.3703842E-1,1.2333399E-3,5.8743436E-2],"categories":[],"categories_nodes":[],"categories_segments":[],"categories_sizes":[],"default_left":[0,0,0,0,0,0,0],"id":49,"left_children":[1,-1,3,-1,5,-1,-1],"loss_changes":[8.855387E-1,0E0,6.3042104E-1,0E0,2.6960498E-1,0E0,0E0],"parents":[2147483647,0,0,2,2,4,4],"right_children":[2,-1,4,-1,6,-1,-1],"split_conditions":[3.3807735E0,-5.1969286E-2,7.155991E-1,-2.5557516E-2,-6.753059E-1,1.2333399E-3,5.8743436E-2],"split_indices":[4,0,5,0,2,0,0],"split_type":[0,0,0,0,0,0,0],"sum_hessian":[5.52994E0,1.0778674E0,4.4520726E0,1.1177502E0,3.3343227E0,1.1549239E0,2.1793988E0],"tree_param":{"num_deleted":"0","num_feature":"14","num_nodes":"7","size_leaf_vector":"1"}},{"base_weights":[3.5232857E-2,-5.1523436E-2,2.3438852E-1,-1.8673441E-1,6.242801E-2,-4.1822594E-2,9.236163E-3],"categories":[],"categories_nodes":[],"categories_segments":[],"categories_sizes":[],"default_left":[0,0,0,0,0,0,0],"id":50,"left_children":[1,-1,3,5,-1,-1,-1],"loss_changes":[8.270932E-1,0E0,1.0062538E0,2.566607E-1,0E0,0E0,0E0],"parents":[2147483647,0,0,2,2,3,3],"right_children":[2,-1,4,6,-1,-1,-1],"split_conditions":[4.5023766E-1,-5.1523436E-2,4.5566907E0,1.4209992E0,6.242801E-2,-4.1822594E-2,9.236163E-3],"split_indices":[3,0,4,0,0,0,0],"split_type":[0,0,0,0,0,0,0],"sum_hessian":[5.442915E0,1.0243932E0,4.418522E0,2.374682E0,2.0438397E0,1.0255526E0,1.3491293E0],"tree_param":{"num_deleted":"0","num_feature":"14","num_nodes":"7","size_leaf_vector":"1"}},{"base_weights":[2.8629623E-2,-5.013861E-2,2.2209875E-1,-1.9371444E-2,4.5359552E-1,2.8419935E-3,6.715554E-2],"categories":[],"categories_nodes":[],"categories_segments":[],"categories_sizes":[],"default_left":[0,0,0,0,0,0,0],"id":51,"left_children":[1,-1,3,-1,5,-1,-1],"loss_changes":[7.6132023E-1,0E0,6.015599E-1,0E0,3.2632756E-1,0E0,0E0],"parents":[2147483647,0,0,2,2,4,4],"right_children":[2,-1,4,-1,6,-1,-1],"split_conditions":[3.3807735E0,-5.013861E-2,7.487465E-1,-1.9371444E-2,1.1374321E0,2.8419935E-3,6.715554E-2],"split_indices":[4,0,6,0,3,0,0],"split_type":[0,0,0,0,0,0,0],"sum_hessian":[5.3385243E0,1.0019875E0,4.336537E0,1.6092393E0,2.7272978E0,1.3073783E0,1.4199195E0],"tree_param":{"num_deleted":"0","num_feature":"14","num_nodes":"7","size_leaf_vector":"1"}},{"base_weights":[2.6208108E-2,-3.479121E-2,2.7494368E-1,-7.280445E-3,4.485612E-2],"categories":[],"categories_nodes":[],"categories_segments":[],"categories_sizes":[],"default_left":[0,0,0,0,0],"id":52,"left_children":[1,-1,3,-1,-1],"loss_changes":[6.7650574E-1,0E0,2.9273975E-1,0E0,0E0],"parents":[2147483647,0,0,2,2],"right_children":[2,-1,4,-1,-1],"split_conditions":[4.1175056E0,-3.479121E-2,7.487465E-1,-7.280445E-3,4.485612E-2],"split_indices":[4,0,6,0,0],"split_type":[0,0,0,0,0],"sum_hessian":[5.241868E0,1.9340954E0,3.3077726E0,1.2948693E0,2.0129035E0],"tree_param":{"num_deleted":"0","num_feature":"14","num_nodes":"5","size_leaf_vector":"1"}},{"base_weights":[2.4132285E-2,-2.52336E-1,3.3543697E-1,-6.009227E-2,1.983829E-2,2.0320013E-3,4.8153866E-2],"categories":[],"categories_nodes":[],"categories_segments":[],"categories_sizes":[],"default_left":[0,0,0,0,0,0,0],"id":53,"left_children":[1,3,5,-1,-1,-1,-1],"loss_changes":[6.1714536E-1,7.237298E-1,1.4396429E-1,0E0,0E0,0E0,0E0],"parents":[2147483647,0,0,1,1,2,2],"right_children":[2,4,6,-1,-1,-1,-1],"split_conditions":[4.8931413E0,1.5144129E0,8.6461157E-1,-6.009227E-2,1.983829E-2,2.0320013E-3,4.8153866E-2],"split_indices":[4,7,0,0,0,0,0],"split_type":[0,0,0,0,0,0,0],"sum_hessian":[5.187151E0,2.8476183E0,2.3395329E0,1.4178202E0,1.429798E0,1.1019316E0,1.2376012E0],"tree_param":{"num_deleted":"0","num_feature":"14","num_nodes":"7","size_leaf_vector":"1"}},{"base_weights":[2.3354638E-2,-3.9202556E-2,2.1159431E-1,-1.8862108E-2,4.246228E-1,5.831023E-2,5.8281077E-3],"categories":[],"categories_nodes":[],"categories_segments":[],"categories_sizes":[],"default_left":[0,0,0,0,0,0,0],"id":54,"left_children":[1,-1,3,-1,5,-1,-1],"loss_changes":[5.59475E-1,0E0,4.9301818E-1,0E0,1.6738361E-1,0E0,0E0],"parents":[2147483647,0,0,2,2,4,4],"right_children":[2,-1,4,-1,6,-1,-1],"split_conditions":[-5.8927894E-1,-3.9202556E-2,4.1175056E0,-1.8862108E-2,2.2330849E-1,5.831023E-2,5.8281077E-3],"split_indices":[8,0,4,0,9,0,0],"split_type":[0,0,0,0,0,0,0],"sum_hessian":[5.094364E0,1.251078E0,3.843286E0,1.3748801E0,2.468406E0,1.3100072E0,1.1583987E0],"tree_param":{"num_deleted":"0","num_feature":"14","num_nodes":"7","size_leaf_vector":"1"}},{"base_weights":[2.2205114E-2,-2.3973878E-1,3.1049058E-1,-5.8147956E-2,1.885134E-2,6.549168E-4,4.5827523E-2],"categories":[],"categories_nodes":[],"categories_segments":[],"categories_sizes":[],"default_left":[0,0,0,0,0,0,0],"id":55,"left_children":[1,3,5,-1,-1,-1,-1],"loss_changes":[5.299783E-1,6.547663E-1,1.4556706E-1,0E0,0E0,0E0,0E0],"parents":[2147483647,0,0,1,1,2,2],"right_children":[2,4,6,-1,-1,-1,-1],"split_conditions":[4.8931413E0,1.5144129E0,8.6461157E-1,-5.8147956E-2,1.885134E-2,6.549168E-4,4.5827523E-2],"split_indices":[4,7,0,0,0,0,0],"split_type":[0,0,0,0,0,0,0],"sum_hessian":[5.032497E0,2.7249408E0,2.3075562E0,1.3165503E0,1.4083905E0,1.0965831E0,1.2109729E0],"tree_param":{"num_deleted":"0","num_feature":"14","num_nodes":"7","size_leaf_vector":"1"}},{"base_weights":[2.1189708E-2,-3.774935E-2,2.0130044E-1,-1.7329922E-2,3.9811444E-1,5.5132564E-2,4.8927125E-3],"categories":[],"categories_nodes":[],"categories_segments":[],"categories_sizes":[],"default_left":[0,0,0,0,0,0,0],"id":56,"left_children":[1,-1,3,-1,5,-1,-1],"loss_changes":[5.030701E-1,0E0,4.1912138E-1,0E0,1.5581024E-1,0E0,0E0],"parents":[2147483647,0,0,2,2,4,4],"right_children":[2,-1,4,-1,6,-1,-1],"split_conditions":[-5.8927894E-1,-3.774935E-2,4.1175056E0,-1.7329922E-2,2.2330849E-1,5.5132564E-2,4.8927125E-3],"split_indices":[8,0,4,0,9,0,0],"split_type":[0,0,0,0,0,0,0],"sum_hessian":[4.947607E0,1.1985861E0,3.749021E0,1.3324403E0,2.4165807E0,1.2772751E0,1.1393057E0],"tree_param":{"num_deleted":"0","num_feature":"14","num_nodes":"7","size_leaf_vector":"1"}},{"base_weights":[2.0061862E-2,-2.280688E-1,2.876041E-1,-5.627192E-2,1.7934041E-2,-5.9152726E-4,4.3675914E-2],"categories":[],"categories_nodes":[],"categories_segments":[],"categories_sizes":[],"default_left":[0,0,0,0,0,0,0],"id":57,"left_children":[1,3,5,-1,-1,-1,-1],"loss_changes":[4.5669734E-1,5.93693E-1,1.4605436E-1,0E0,0E0,0E0,0E0],"parents":[2147483647,0,0,1,1,2,2],"right_children":[2,4,6,-1,-1,-1,-1],"split_conditions":[4.8931413E0,1.5144129E0,8.6461157E-1,-5.627192E-2,1.7934041E-2,-5.9152726E-4,4.3675914E-2],"split_indices":[4,7,0,0,0,0,0],"split_type":[0,0,0,0,0,0,0],"sum_hessian":[4.8914104E0,2.6143167E0,2.2770936E0,1.2260292E0,1.3882875E0,1.0908239E0,1.1862699E0],"tree_param":{"num_deleted":"0","num_feature":"14","num_nodes":"7","size_leaf_vector":"1"}},{"base_weights":[1.8857282E-2,-2.9401738E-2,2.3521382E-1,-8.321914E-3,3.8656294E-2],"categories":[],"categories_nodes":[],"categories_segments":[],"categories_sizes":[],"default_left":[0,0,0,0,0],"id":58,"left_children":[1,-1,3,-1,-1],"loss_changes":[4.6269184E-1,0E0,2.245844E-1,0E0,0E0],"parents":[2147483647,0,0,2,2],"right_children":[2,-1,4,-1,-1],"split_conditions":[7.487465E-1,-2.9401738E-2,4.086082E0,-8.321914E-3,3.8656294E-2],"split_indices":[6,0,4,0,0],"split_type":[0,0,0,0,0],"sum_hessian":[4.8135695E0,1.8211066E0,2.992463E0,1.1091028E0,1.8833601E0],"tree_param":{"num_deleted":"0","num_feature":"14","num_nodes":"5","size_leaf_vector":"1"}},{"base_weights":[1.7185317E-2,-3.6496855E-2,1.8931678E-1,-4.3302417E-2,5.1666833E-2,-4.176405E-2,3.0725965E-2],"categories":[],"categories_nodes":[],"categories_segments":[],"categories_sizes":[],"default_left":[0,0,0,0,0,0,0],"id":59,"left_children":[1,-1,3,5,-1,-1,-1],"loss_changes":[4.4895086E-1,0E0,3.756823E-1,6.053418E-1,0E0,0E0,0E0],"parents":[2147483647,0,0,2,2,3,3],"right_children":[2,-1,4,6,-1,-1,-1],"split_conditions":[-5.8927894E-1,-3.6496855E-2,5.7495394E0,7.630639E-1,5.1666833E-2,-4.176405E-2,3.0725965E-2],"split_indices":[8,0,4,6,0,0,0],"split_type":[0,0,0,0,0,0,0],"sum_hessian":[4.774584E0,1.1348289E0,3.6397548E0,2.63501E0,1.0047448E0,1.1817573E0,1.4532528E0],"tree_param":{"num_deleted":"0","num_feature":"14","num_nodes":"7","size_leaf_vector":"1"}},{"base_weights":[1.6213084E-2,-3.499232E-2,1.8082656E-1,4.212463E-2,-9.248416E-3],"categories":[],"categories_nodes":[],"categories_segments":[],"categories_sizes":[],"default_left":[0,0,0,0,0],"id":60,"left_children":[1,-1,3,-1,-1],"loss_changes":[4.0701655E-1,0E0,3.4080613E-1,0E0,0E0],"parents":[2147483647,0,0,2,2],"right_children":[2,-1,4,-1,-1],"split_conditions":[-5.8927894E-1,-3.499232E-2,-6.463023E-2,4.212463E-2,-9.248416E-3],"split_indices":[8,0,8,0,0],"split_type":[0,0,0,0,0],"sum_hessian":[4.7032638E0,1.109583E0,3.5936806E0,1.6239173E0,1.9697633E0],"tree_param":{"num_deleted":"0","num_feature":"14","num_nodes":"5","size_leaf_vector":"1"}},{"base_weights":[1.424409E-2,-3.3599924E-2,1.8469931E-1,-1.8601775E-2,4.402762E-2],"categories":[],"categories_nodes":[],"categories_segments":[],"categories_sizes":[],"default_left":[0,0,0,0,0],"id":61,"left_children":[1,-1,3,-1,-1],"loss_changes":[4.0049812E-1,0E0,5.043214E-1,0E0,0E0],"parents":[2147483647,0,0,2,2],"right_children":[2,-1,4,-1,-1],"split_conditions":[7.155991E-1,-3.3599924E-2,4.5566907E0,-1.8601775E-2,4.402762E-2],"split_indices":[5,0,4,0,0],"split_type":[0,0,0,0,0],"sum_hessian":[4.6689234E0,1.2104862E0,3.4584374E0,1.5223774E0,1.93606E0],"tree_param":{"num_deleted":"0","num_feature":"14","num_nodes":"5","size_leaf_vector":"1"}},{"base_weights":[1.1447242E-2,-3.358464E-2,1.7516583E-1,-8.481696E-2,4.3574646E-2,-3.3012167E-2,2.0290552E-2],"categories":[],"categories_nodes":[],"categories_segments":[],"categories_sizes":[],"default_left":[0,0,0,0,0,0,0],"id":62,"left_children":[1,-1,3,5,-1,-1,-1],"loss_changes":[3.777564E-1,0E0,3.3973837E-1,2.8396562E-1,0E0,0E0,0E0],"parents":[2147483647,0,0,2,2,3,3],"right_children":[2,-1,4,6,-1,-1,-1],"split_conditions":[-2.7588862E-1,-3.358464E-2,1.5144129E0,-3.616596E-1,4.3574646E-2,-3.3012167E-2,2.0290552E-2],"split_indices":[1,0,7,11,0,0,0],"split_type":[0,0,0,0,0,0,0],"sum_hessian":[4.609153E0,1.1398478E0,3.4693048E0,2.0742857E0,1.395019E0,1.0401336E0,1.0341523E0],"tree_param":{"num_deleted":"0","num_feature":"14","num_nodes":"7","size_leaf_vector":"1"}},{"base_weights":[9.7931735E-3,-2.7453229E-2,2.052298E-1,-8.166685E-3,3.823576E-2],"categories":[],"categories_nodes":[],"categories_segments":[],"categories_sizes":[],"default_left":[0,0,0,0,0],"id":63,"left_children":[1,-1,3,-1,-1],"loss_changes":[3.652698E-1,0E0,2.2773641E-1,0E0,0E0],"parents":[2147483647,0,0,2,2],"right_children":[2,-1,4,-1,-1],"split_conditions":[7.487465E-1,-2.7453229E-2,1.1374321E0,-8.166685E-3,3.823576E-2],"split_indices":[6,0,3,0,0],"split_type":[0,0,0,0,0],"sum_hessian":[4.559491E0,1.6924971E0,2.8669941E0,1.3001152E0,1.5668788E0],"tree_param":{"num_deleted":"0","num_feature":"14","num_nodes":"5","size_leaf_vector":"1"}},{"base_weights":[9.304189E-3,-2.2158124E-1,2.5321802E-1,-5.278014E-2,1.5014718E-2,-2.7140628E-3,4.028578E-2],"categories":[],"categories_nodes":[],"categories_segments":[],"categories_sizes":[],"default_left":[0,0,0,0,0,0,0],"id":64,"left_children":[1,3,5,-1,-1,-1,-1],"loss_changes":[3.6717647E-1,4.6296018E-1,1.4319853E-1,0E0,0E0,0E0,0E0],"parents":[2147483647,0,0,1,1,2,2],"right_children":[2,4,6,-1,-1,-1,-1],"split_conditions":[4.8931413E0,1.5144129E0,8.6461157E-1,-5.278014E-2,1.5014718E-2,-2.7140628E-3,4.028578E-2],"split_indices":[4,7,0,0,0,0,0],"split_type":[0,0,0,0,0,0,0],"sum_hessian":[4.5236044E0,2.3709016E0,2.1527028E0,1.0697839E0,1.3011178E0,1.0340251E0,1.1186777E0],"tree_param":{"num_deleted":"0","num_feature":"14","num_nodes":"7","size_leaf_vector":"1"}},{"base_weights":[8.236573E-3,-3.3791907E-2,1.6416915E-1,4.3502178E-2,-6.0256775E-2,-3.3244345E-2,2.309568E-2],"categories":[],"categories_nodes":[],"categories_segments":[],"categories_sizes":[],"default_left":[0,0,0,0,0,0,0],"id":65,"left_children":[1,-1,3,-1,5,-1,-1],"loss_changes":[3.500202E-1,0E0,2.9581004E-1,0E0,3.386531E-1,0E0,0E0],"parents":[2147483647,0,0,2,2,4,4],"right_children":[2,-1,4,-1,6,-1,-1],"split_conditions":[-5.8927894E-1,-3.3791907E-2,-2.7040878E-1,4.3502178E-2,1.3026344E0,-3.3244345E-2,2.309568E-2],"split_indices":[8,0,9,0,5,0,0],"split_type":[0,0,0,0,0,0,0],"sum_hessian":[4.456855E0,1.0216978E0,3.4351573E0,1.1313683E0,2.303789E0,1.1176153E0,1.1861736E0],"tree_param":{"num_deleted":"0","num_feature":"14","num_nodes":"7","size_leaf_vector":"1"}},{"base_weights":[7.299208E-3,-2.1668495E-1,2.4091184E-1,-5.1099744E-2,1.3691025E-2,-2.907592E-3,3.8514655E-2],"categories":[],"categories_nodes":[],"categories_segments":[],"categories_sizes":[],"default_left":[0,0,0,0,0,0,0],"id":66,"left_children":[1,3,5,-1,-1,-1,-1],"loss_changes":[3.3484384E-1,4.1172916E-1,1.3259906E-1,0E0,0E0,0E0,0E0],"parents":[2147483647,0,0,1,1,2,2],"right_children":[2,4,6,-1,-1,-1,-1],"split_conditions":[4.8931413E0,1.5144129E0,8.6461157E-1,-5.1099744E-2,1.3691025E-2,-2.907592E-3,3.8514655E-2],"split_indices":[4,7,0,0,0,0,0],"split_type":[0,0,0,0,0,0,0],"sum_hessian":[4.401606E0,2.2841036E0,2.1175027E0,1.0036088E0,1.2804948E0,1.0153388E0,1.1021638E0],"tree_param":{"num_deleted":"0","num_feature":"14","num_nodes":"7","size_leaf_vector":"1"}},{"base_weights":[6.1247433E-3,-2.6818892E-2,1.9502197E-1,-8.791625E-3,3.3448797E-2],"categories":[],"categories_nodes":[],"categories_segments":[],"categories_sizes":[],"default_left":[0,0,0,0,0],"id":67,"left_children":[1,-1,3,-1,-1],"loss_changes":[3.290182E-1,0E0,1.770462E-1,0E0,0E0],"parents":[2147483647,0,0,2,2],"right_children":[2,-1,4,-1,-1],"split_conditions":[7.487465E-1,-2.6818892E-2,4.086082E0,-8.791625E-3,3.3448797E-2],"split_indices":[6,0,4,0,0],"split_type":[0,0,0,0,0],"sum_hessian":[4.340235E0,1.5987679E0,2.7414675E0,1.0271943E0,1.7142732E0],"tree_param":{"num_deleted":"0","num_feature":"14","num_nodes":"5","size_leaf_vector":"1"}},{"base_weights":[5.0950195E-3,-3.154451E-2,1.6183743E-1,-1.774414E-2,3.9307177E-2],"categories":[],"categories_nodes":[],"categories_segments":[],"categories_sizes":[],"default_left":[0,0,0,0,0],"id":68,"left_children":[1,-1,3,-1,-1],"loss_changes":[3.177725E-1,0E0,4.0130654E-1,0E0,0E0],"parents":[2147483647,0,0,2,2],"right_children":[2,-1,4,-1,-1],"split_conditions":[7.155991E-1,-3.154451E-2,4.5566907E0,-1.774414E-2,3.9307177E-2],"split_indices":[5,0,4,0,0],"split_type":[0,0,0,0,0],"sum_hessian":[4.308715E0,1.0824944E0,3.2262204E0,1.4019061E0,1.8243144E0],"tree_param":{"num_deleted":"0","num_feature":"14","num_nodes":"5","size_leaf_vector":"1"}},{"base_weights":[2.6878961E-3,-3.1776786E-2,1.5623343E-1,-7.913877E-3,3.8234264E-2],"categories":[],"categories_nodes":[],"categories_segments":[],"categories_sizes":[],"default_left":[0,0,0,0,0],"id":69,"left_children":[1,-1,3,-1,-1],"loss_changes":[3.083885E-1,0E0,2.551379E-1,0E0,0E0],"parents":[2147483647,0,0,2,2],"right_children":[2,-1,4,-1,-1],"split_conditions":[-2.7588862E-1,-3.1776786E-2,1.5144129E0,-7.913877E-3,3.8234264E-2],"split_indices":[1,0,7,0,0],"split_type":[0,0,0,0,0],"sum_hessian":[4.258508E0,1.0330195E0,3.2254884E0,1.8988479E0,1.3266405E0],"tree_param":{"num_deleted":"0","num_feature":"14","num_nodes":"5","size_leaf_vector":"1"}},{"base_weights":[2.1056966E-3,2.0370935E-1,-2.3277132E-2,-1.2568844E-2,4.21845E-2],"categories":[],"categories_nodes":[],"categories_segments":[],"categories_sizes":[],"default_left":[0,0,0,0,0],"id":70,"left_children":[1,3,-1,-1,-1],"loss_changes":[2.9488754E-1,2.934118E-1,0E0,0E0,0E0],"parents":[2147483647,0,0,1,1],"right_children":[2,4,-1,-1,-1],"split_conditions":[-3.2864904E-1,1.2136898E0,-2.3277132E-2,-1.2568844E-2,4.21845E-2],"split_indices":[13,5,0,0,0],"split_type":[0,0,0,0,0],"sum_hessian":[4.2261686E0,2.3455734E0,1.8805951E0,1.1033123E0,1.2422612E0],"tree_param":{"num_deleted":"0","num_feature":"14","num_nodes":"5","size_leaf_vector":"1"}},{"base_weights":[3.1254394E-3,-2.6201947E-2,1.8459956E-1,-7.411834E-3,3.3967484E-2],"categories":[],"categories_nodes":[],"categories_segments":[],"categories_sizes":[],"default_left":[0,0,0,0,0],"id":71,"left_children":[1,-1,3,-1,-1],"loss_changes":[2.979977E-1,0E0,1.7228368E-1,0E0,0E0],"parents":[2147483647,0,0,2,2],"right_children":[2,-1,4,-1,-1],"split_conditions":[7.487465E-1,-2.6201947E-2,1.1374321E0,-7.411834E-3,3.3967484E-2],"split_indices":[6,0,3,0,0],"split_type":[0,0,0,0,0],"sum_hessian":[4.1879654E0,1.5213461E0,2.6666195E0,1.1950021E0,1.4716175E0],"tree_param":{"num_deleted":"0","num_feature":"14","num_nodes":"5","size_leaf_vector":"1"}},{"base_weights":[2.8625876E-3,-2.6196996E-2,1.7794994E-1,3.3935286E-2,-9.811417E-3],"categories":[],"categories_nodes":[],"categories_segments":[],"categories_sizes":[],"default_left":[0,0,0,0,0],"id":72,"left_children":[1,-1,3,-1,-1],"loss_changes":[2.8581974E-1,0E0,1.9820428E-1,0E0,0E0],"parents":[2147483647,0,0,2,2],"right_children":[2,-1,4,-1,-1],"split_conditions":[4.1175056E0,-2.6196996E-2,-3.2864904E-1,3.3935286E-2,-9.811417E-3],"split_indices":[4,0,13,0,0],"split_type":[0,0,0,0,0],"sum_hessian":[4.158685E0,1.457653E0,2.7010322E0,1.5598187E0,1.1412133E0],"tree_param":{"num_deleted":"0","num_feature":"14","num_nodes":"5","size_leaf_vector":"1"}},{"base_weights":[2.1501868E-3,-2.5196454E-2,1.7506424E-1,-7.2845533E-3,3.247742E-2],"categories":[],"categories_nodes":[],"categories_segments":[],"categories_sizes":[],"default_left":[0,0,0,0,0],"id":73,"left_children":[1,-1,3,-1,-1],"loss_changes":[2.6924816E-1,0E0,1.5872088E-1,0E0,0E0],"parents":[2147483647,0,0,2,2],"right_children":[2,-1,4,-1,-1],"split_conditions":[7.487465E-1,-2.5196454E-2,1.1374321E0,-7.2845533E-3,3.247742E-2],"split_indices":[6,0,3,0,0],"split_type":[0,0,0,0,0],"sum_hessian":[4.1237626E0,1.4846916E0,2.6390712E0,1.1869625E0,1.4521087E0],"tree_param":{"num_deleted":"0","num_feature":"14","num_nodes":"5","size_leaf_vector":"1"}},{"base_weights":[1.9129078E-3,-2.0745614E-1,2.1908997E-2,-3.423201E-3,-2.7383877E-2],"categories":[],"categories_nodes":[],"categories_segments":[],"categories_sizes":[],"default_left":[0,0,0,0,0],"id":74,"left_children":[1,3,-1,-1,-1],"loss_changes":[2.771936E-1,2.6371643E-2,0E0,0E0,0E0],"parents":[2147483647,0,0,1,1],"right_children":[2,4,-1,-1,-1],"split_conditions":[4.8931413E0,-4.9634957E-1,2.1908997E-2,-3.423201E-3,-2.7383877E-2],"split_indices":[4,13,0,0,0],"split_type":[0,0,0,0,0],"sum_hessian":[4.0965757E0,2.108572E0,1.988004E0,1.0040917E0,1.1044803E0],"tree_param":{"num_deleted":"0","num_feature":"14","num_nodes":"5","size_leaf_vector":"1"}},{"base_weights":[-7.0905255E-5,-1.5466124E-1,2.6563024E-2,-4.0243395E-2,2.3156043E-2],"categories":[],"categories_nodes":[],"categories_segments":[],"categories_sizes":[],"default_left":[0,0,0,0,0],"id":75,"left_children":[1,3,-1,-1,-1],"loss_changes":[2.4970028E-1,4.6092993E-1,0E0,0E0,0E0],"parents":[2147483647,0,0,1,1],"right_children":[2,4,-1,-1,-1],"split_conditions":[5.9603524E0,1.192012E0,2.6563024E-2,-4.0243395E-2,2.3156043E-2],"split_indices":[4,1,0,0,0],"split_type":[0,0,0,0,0],"sum_hessian":[4.0789638E0,2.8428493E0,1.2361147E0,1.7062576E0,1.1365917E0],"tree_param":{"num_deleted":"0","num_feature":"14","num_nodes":"5","size_leaf_vector":"1"}},{"base_weights":[1.6371396E-3,-2.4381712E-2,1.681563E-1,-7.3852623E-3,3.146001E-2],"categories":[],"categories_nodes":[],"categories_segments":[],"categories_sizes":[],"default_left":[0,0,0,0,0],"id":76,"left_children":[1,-1,3,-1,-1],"loss_changes":[2.4647564E-1,0E0,1.5036136E-1,0E0,0E0],"parents":[2147483647,0,0,2,2],"right_children":[2,-1,4,-1,-1],"split_conditions":[7.487465E-1,-2.4381712E-2,1.1374321E0,-7.3852623E-3,3.146001E-2],"split_indices":[6,0,3,0,0],"split_type":[0,0,0,0,0],"sum_hessian":[4.027208E0,1.440164E0,2.5870438E0,1.1621689E0,1.4248749E0],"tree_param":{"num_deleted":"0","num_feature":"14","num_nodes":"5","size_leaf_vector":"1"}},{"base_weights":[1.3904804E-3,-1.9461115E-1,2.0244574E-2,-2.395174E-2,-5.393244E-3],"categories":[],"categories_nodes":[],"categories_segments":[],"categories_sizes":[],"default_left":[0,0,0,0,0],"id":77,"left_children":[1,3,-1,-1,-1],"loss_changes":[2.365094E-1,6.3037574E-3,0E0,0E0,0E0],"parents":[2147483647,0,0,1,1],"right_children":[2,4,-1,-1,-1],"split_conditions":[4.8931413E0,3.7673466E0,2.0244574E-2,-2.395174E-2,-5.393244E-3],"split_indices":[4,4,0,0,0],"split_type":[0,0,0,0,0],"sum_hessian":[4.0019135E0,2.042654E0,1.9592596E0,1.0158112E0,1.026843E0],"tree_param":{"num_deleted":"0","num_feature":"14","num_nodes":"5","size_leaf_vector":"1"}},{"base_weights":[-6.1277905E-4,1.7993686E-1,-2.1057544E-2,-1.403329E-2,3.966297E-2],"categories":[],"categories_nodes":[],"categories_segments":[],"categories_sizes":[],"default_left":[0,0,0,0,0],"id":78,"left_children":[1,3,-1,-1,-1],"loss_changes":[2.2683352E-1,2.7906027E-1,0E0,0E0,0E0],"parents":[2147483647,0,0,1,1],"right_children":[2,4,-1,-1,-1],"split_conditions":[-3.2864904E-1,1.2136898E0,-2.1057544E-2,-1.403329E-2,3.966297E-2],"split_indices":[13,5,0,0,0],"split_type":[0,0,0,0,0],"sum_hessian":[3.984168E0,2.2190142E0,1.7651538E0,1.037697E0,1.1813173E0],"tree_param":{"num_deleted":"0","num_feature":"14","num_nodes":"5","size_leaf_vector":"1"}},{"base_weights":[3.6529318E-4,-2.3897827E-2,1.617585E-1,-7.24897E-3,3.028651E-2],"categories":[],"categories_nodes":[],"categories_segments":[],"categories_sizes":[],"default_left":[0,0,0,0,0],"id":79,"left_children":[1,-1,3,-1,-1],"loss_changes":[2.2989494E-1,0E0,1.3940203E-1,0E0,0E0],"parents":[2147483647,0,0,2,2],"right_children":[2,-1,4,-1,-1],"split_conditions":[7.487465E-1,-2.3897827E-2,1.1374321E0,-7.24897E-3,3.028651E-2],"split_indices":[6,0,3,0,0],"split_type":[0,0,0,0,0],"sum_hessian":[3.950711E0,1.3975081E0,2.5532029E0,1.1426274E0,1.4105756E0],"tree_param":{"num_deleted":"0","num_feature":"14","num_nodes":"5","size_leaf_vector":"1"}},{"base_weights":[1.2784428E-4,-1.5003486E-1,2.5265852E-2,-3.8336303E-2,2.1128366E-2],"categories":[],"categories_nodes":[],"categories_segments":[],"categories_sizes":[],"default_left":[0,0,0,0,0],"id":80,"left_children":[1,3,-1,-1,-1],"loss_changes":[2.2474061E-1,3.943736E-1,0E0,0E0,0E0],"parents":[2147483647,0,0,1,1],"right_children":[2,4,-1,-1,-1],"split_conditions":[5.9603524E0,1.192012E0,2.5265852E-2,-3.8336303E-2,2.1128366E-2],"split_indices":[4,1,0,0,0],"split_type":[0,0,0,0,0],"sum_hessian":[3.9269419E0,2.717127E0,1.2098147E0,1.613906E0,1.103221E0],"tree_param":{"num_deleted":"0","num_feature":"14","num_nodes":"5","size_leaf_vector":"1"}},{"base_weights":[1.6065263E-3,-2.3013001E-2,1.544491E-1,-8.771374E-3,3.1032726E-2],"categories":[],"categories_nodes":[],"categories_segments":[],"categories_sizes":[],"default_left":[0,0,0,0,0],"id":81,"left_children":[1,-1,3,-1,-1],"loss_changes":[2.0843424E-1,0E0,1.6083667E-1,0E0,0E0],"parents":[2147483647,0,0,2,2],"right_children":[2,-1,4,-1,-1],"split_conditions":[4.1175056E0,-2.3013001E-2,9.345231E-1,-8.771374E-3,3.1032726E-2],"split_indices":[4,0,0,0,0],"split_type":[0,0,0,0,0],"sum_hessian":[3.8812733E0,1.3415612E0,2.5397122E0,1.1658349E0,1.3738773E0],"tree_param":{"num_deleted":"0","num_feature":"14","num_nodes":"5","size_leaf_vector":"1"}},{"base_weights":[1.2858069E-3,-2.3308372E-2,1.5879966E-1,-3.5714102E-3,3.2196935E-2],"categories":[],"categories_nodes":[],"categories_segments":[],"categories_sizes":[],"default_left":[0,0,0,0,0],"id":82,"left_children":[1,-1,3,-1,-1],"loss_changes":[2.1600528E-1,0E0,1.224101E-1,0E0,0E0],"parents":[2147483647,0,0,2,2],"right_children":[2,-1,4,-1,-1],"split_conditions":[7.487465E-1,-2.3308372E-2,-2.2703889E-1,-3.5714102E-3,3.2196935E-2],"split_indices":[6,0,11,0,0],"split_type":[0,0,0,0,0],"sum_hessian":[3.8485613E0,1.3540555E0,2.494506E0,1.4942914E0,1.0002145E0],"tree_param":{"num_deleted":"0","num_feature":"14","num_nodes":"5","size_leaf_vector":"1"}},{"base_weights":[2.2277655E-3,1.7298567E-1,-1.9732136E-2,-1.27491625E-2,3.822049E-2],"categories":[],"categories_nodes":[],"categories_segments":[],"categories_sizes":[],"default_left":[0,0,0,0,0],"id":83,"left_children":[1,3,-1,-1,-1],"loss_changes":[1.9877382E-1,2.4591032E-1,0E0,0E0,0E0],"parents":[2147483647,0,0,1,1],"right_children":[2,4,-1,-1,-1],"split_conditions":[-3.2864904E-1,1.2631035E0,-1.9732136E-2,-1.27491625E-2,3.822049E-2],"split_indices":[13,5,0,0,0],"split_type":[0,0,0,0,0],"sum_hessian":[3.831755E0,2.1365697E0,1.6951852E0,1.0373605E0,1.0992092E0],"tree_param":{"num_deleted":"0","num_feature":"14","num_nodes":"5","size_leaf_vector":"1"}},{"base_weights":[3.2120387E-3,-2.249646E-2,1.5443449E-1,-6.7798384E-3,2.8605914E-2],"categories":[],"categories_nodes":[],"categories_segments":[],"categories_sizes":[],"default_left":[0,0,0,0,0],"id":84,"left_children":[1,-1,3,-1,-1],"loss_changes":[2.0045398E-1,0E0,1.2122519E-1,0E0,0E0],"parents":[2147483647,0,0,2,2],"right_children":[2,-1,4,-1,-1],"split_conditions":[7.487465E-1,-2.249646E-2,1.1374321E0,-6.7798384E-3,2.8605914E-2],"split_indices":[6,0,3,0,0],"split_type":[0,0,0,0,0],"sum_hessian":[3.8024817E0,1.321243E0,2.4812386E0,1.1033211E0,1.3779175E0],"tree_param":{"num_deleted":"0","num_feature":"14","num_nodes":"5","size_leaf_vector":"1"}},{"base_weights":[2.739998E-3,-1.4378454E-1,2.4320016E-2,-4.178284E-2,1.4710999E-2],"categories":[],"categories_nodes":[],"categories_segments":[],"categories_sizes":[],"default_left":[0,0,0,0,0],"id":85,"left_children":[1,3,-1,-1,-1],"loss_changes":[2.0344715E-1,3.48428E-1,0E0,0E0,0E0],"parents":[2147483647,0,0,1,1],"right_children":[2,4,-1,-1,-1],"split_conditions":[5.9603524E0,7.630639E-1,2.4320016E-2,-4.178284E-2,1.4710999E-2],"split_indices":[4,6,0,0,0],"split_type":[0,0,0,0,0],"sum_hessian":[3.781802E0,2.599711E0,1.1820911E0,1.1139406E0,1.4857702E0],"tree_param":{"num_deleted":"0","num_feature":"14","num_nodes":"5","size_leaf_vector":"1"}},{"base_weights":[1.7484623E-3,-2.2341363E-2,1.5029219E-1,-8.322718E-3,2.9899854E-2],"categories":[],"categories_nodes":[],"categories_segments":[],"categories_sizes":[],"default_left":[0,0,0,0,0],"id":86,"left_children":[1,-1,3,-1,-1],"loss_changes":[1.9234219E-1,0E0,1.449618E-1,0E0,0E0],"parents":[2147483647,0,0,2,2],"right_children":[2,-1,4,-1,-1],"split_conditions":[4.1175056E0,-2.2341363E-2,9.345231E-1,-8.322718E-3,2.9899854E-2],"split_indices":[4,0,0,0,0],"split_type":[0,0,0,0,0],"sum_hessian":[3.746842E0,1.2889817E0,2.4578602E0,1.1275499E0,1.3303103E0],"tree_param":{"num_deleted":"0","num_feature":"14","num_nodes":"5","size_leaf_vector":"1"}},{"base_weights":[1.4088155E-3,-1.7473161E-2,1.8000988E-2],"categories":[],"categories_nodes":[],"categories_segments":[],"categories_sizes":[],"default_left":[0,0,0],"id":87,"left_children":[1,-1,-1],"loss_changes":[1.7983788E-1,0E0,0E0],"parents":[2147483647,0,0],"right_children":[2,-1,-1],"split_conditions":[4.8931413E0,-1.7473161E-2,1.8000988E-2],"split_indices":[4,0,0],"split_type":[0,0,0],"sum_hessian":[3.7167773E0,1.882187E0,1.8345902E0],"tree_param":{"num_deleted":"0","num_feature":"14","num_nodes":"3","size_leaf_vector":"1"}},{"base_weights":[1.3555546E-3,-2.125153E-2,1.5046817E-1,-1.4449834E-2,3.511093E-2],"categories":[],"categories_nodes":[],"categories_segments":[],"categories_sizes":[],"default_left":[0,0,0,0,0],"id":88,"left_children":[1,-1,3,-1,-1],"loss_changes":[1.8194331E-1,0E0,2.4936217E-1,0E0,0E0],"parents":[2147483647,0,0,2,2],"right_children":[2,-1,4,-1,-1],"split_conditions":[-3.5075467E-2,-2.125153E-2,1.3569077E0,-1.4449834E-2,3.511093E-2],"split_indices":[1,0,7,0,0],"split_type":[0,0,0,0,0],"sum_hessian":[3.7024944E0,1.3463036E0,2.3561907E0,1.0671579E0,1.2890329E0],"tree_param":{"num_deleted":"0","num_feature":"14","num_nodes":"5","size_leaf_vector":"1"}},{"base_weights":[1.0871537E-3,-2.1521369E-2,1.4363216E-1,2.818877E-2,-6.2545636E-3],"categories":[],"categories_nodes":[],"categories_segments":[],"categories_sizes":[],"default_left":[0,0,0,0,0],"id":89,"left_children":[1,-1,3,-1,-1],"loss_changes":[1.7503415E-1,0E0,1.15041494E-1,0E0,0E0],"parents":[2147483647,0,0,2,2],"right_children":[2,-1,4,-1,-1],"split_conditions":[7.487465E-1,-2.1521369E-2,-1.7016098E-1,2.818877E-2,-6.2545636E-3],"split_indices":[6,0,8,0,0],"split_type":[0,0,0,0,0],"sum_hessian":[3.674355E0,1.2570643E0,2.417291E0,1.2271802E0,1.1901106E0],"tree_param":{"num_deleted":"0","num_feature":"14","num_nodes":"5","size_leaf_vector":"1"}},{"base_weights":[1.0495469E-3,1.631418E-1,-1.8791167E-2,-1.1388282E-2,3.6240816E-2],"categories":[],"categories_nodes":[],"categories_segments":[],"categories_sizes":[],"default_left":[0,0,0,0,0],"id":90,"left_children":[1,3,-1,-1,-1],"loss_changes":[1.7329183E-1,2.0919126E-1,0E0,0E0,0E0],"parents":[2147483647,0,0,1,1],"right_children":[2,4,-1,-1,-1],"split_conditions":[-3.2864904E-1,1.3026344E0,-1.8791167E-2,-1.1388282E-2,3.6240816E-2],"split_indices":[13,5,0,0,0],"split_type":[0,0,0,0,0],"sum_hessian":[3.6568575E0,2.0419216E0,1.614936E0,1.0335485E0,1.008373E0],"tree_param":{"num_deleted":"0","num_feature":"14","num_nodes":"5","size_leaf_vector":"1"}},{"base_weights":[2.2586337E-3,-1.7087469E-2,1.7729847E-2],"categories":[],"categories_nodes":[],"categories_segments":[],"categories_sizes":[],"default_left":[0,0,0],"id":91,"left_children":[1,-1,-1],"loss_changes":[1.7064938E-1,0E0,0E0],"parents":[2147483647,0,0],"right_children":[2,-1,-1],"split_conditions":[4.8931413E0,-1.7087469E-2,1.7729847E-2],"split_indices":[4,0,0],"split_type":[0,0,0],"sum_hessian":[3.631332E0,1.8375709E0,1.793761E0],"tree_param":{"num_deleted":"0","num_feature":"14","num_nodes":"3","size_leaf_vector":"1"}},{"base_weights":[2.1512238E-3,-2.111384E-2,1.4114681E-1,-6.8621114E-3,2.6652535E-2],"categories":[],"categories_nodes":[],"categories_segments":[],"categories_sizes":[],"default_left":[0,0,0,0,0],"id":92,"left_children":[1,-1,3,-1,-1],"loss_changes":[1.667057E-1,0E0,1.0758534E-1,0E0,0E0],"parents":[2147483647,0,0,2,2],"right_children":[2,-1,4,-1,-1],"split_conditions":[7.487465E-1,-2.111384E-2,1.1374321E0,-6.8621114E-3,2.6652535E-2],"split_indices":[6,0,3,0,0],"split_type":[0,0,0,0,0],"sum_hessian":[3.6179156E0,1.2226783E0,2.3952372E0,1.0654112E0,1.3298261E0],"tree_param":{"num_deleted":"0","num_feature":"14","num_nodes":"5","size_leaf_vector":"1"}},{"base_weights":[1.6371905E-3,-2.1836173E-2,1.354213E-1,3.3388693E-2,-1.40507985E-2],"categories":[],"categories_nodes":[],"categories_segments":[],"categories_sizes":[],"default_left":[0,0,0,0,0],"id":93,"left_children":[1,-1,3,-1,-1],"loss_changes":[1.6496523E-1,0E0,2.373685E-1,0E0,0E0],"parents":[2147483647,0,0,2,2],"right_children":[2,-1,4,-1,-1],"split_conditions":[-6.207916E-1,-2.1836173E-2,-1.2914799E-1,3.3388693E-2,-1.40507985E-2],"split_indices":[2,0,2,0,0],"split_type":[0,0,0,0,0],"sum_hessian":[3.600188E0,1.1223556E0,2.4778323E0,1.3190465E0,1.1587859E0],"tree_param":{"num_deleted":"0","num_feature":"14","num_nodes":"5","size_leaf_vector":"1"}},{"base_weights":[9.1329083E-4,-2.1133928E-2,1.4062251E-1,-8.26655E-3,2.8300298E-2],"categories":[],"categories_nodes":[],"categories_segments":[],"categories_sizes":[],"default_left":[0,0,0,0,0],"id":94,"left_children":[1,-1,3,-1,-1],"loss_changes":[1.6551194E-1,0E0,1.3027981E-1,0E0,0E0],"parents":[2147483647,0,0,2,2],"right_children":[2,-1,4,-1,-1],"split_conditions":[4.1175056E0,-2.1133928E-2,9.345231E-1,-8.26655E-3,2.8300298E-2],"split_indices":[4,0,0,0,0],"split_type":[0,0,0,0,0],"sum_hessian":[3.5792978E0,1.2172652E0,2.3620327E0,1.083009E0,1.2790236E0],"tree_param":{"num_deleted":"0","num_feature":"14","num_nodes":"5","size_leaf_vector":"1"}},{"base_weights":[5.7531457E-4,-2.0219503E-2,1.428025E-1,-1.3679153E-2,3.2974534E-2],"categories":[],"categories_nodes":[],"categories_segments":[],"categories_sizes":[],"default_left":[0,0,0,0,0],"id":95,"left_children":[1,-1,3,-1,-1],"loss_changes":[1.6016297E-1,0E0,2.1559075E-1,0E0,0E0],"parents":[2147483647,0,0,2,2],"right_children":[2,-1,4,-1,-1],"split_conditions":[-3.5075467E-2,-2.0219503E-2,1.3569077E0,-1.3679153E-2,3.2974534E-2],"split_indices":[1,0,7,0,0],"split_type":[0,0,0,0,0],"sum_hessian":[3.5524092E0,1.2906797E0,2.2617292E0,1.0137792E0,1.2479502E0],"tree_param":{"num_deleted":"0","num_feature":"14","num_nodes":"5","size_leaf_vector":"1"}},{"base_weights":[3.0469146E-4,-1.3466339E-1,2.1779835E-2,-3.4652356E-2,1.8601043E-2],"categories":[],"categories_nodes":[],"categories_segments":[],"categories_sizes":[],"default_left":[0,0,0,0,0],"id":96,"left_children":[1,3,-1,-1,-1],"loss_changes":[1.6222405E-1,2.9622984E-1,0E0,0E0,0E0],"parents":[2147483647,0,0,1,1],"right_children":[2,4,-1,-1,-1],"split_conditions":[5.9603524E0,1.192012E0,2.1779835E-2,-3.4652356E-2,1.8601043E-2],"split_indices":[4,1,0,0,0],"split_type":[0,0,0,0,0],"sum_hessian":[3.5271997E0,2.411535E0,1.1156646E0,1.4036032E0,1.0079318E0],"tree_param":{"num_deleted":"0","num_feature":"14","num_nodes":"5","size_leaf_vector":"1"}},{"base_weights":[1.4328462E-3,-2.146133E-2,1.3312525E-1,3.217778E-2,-1.3454131E-2],"categories":[],"categories_nodes":[],"categories_segments":[],"categories_sizes":[],"default_left":[0,0,0,0,0],"id":97,"left_children":[1,-1,3,-1,-1],"loss_changes":[1.5638542E-1,0E0,2.153939E-1,0E0,0E0],"parents":[2147483647,0,0,2,2],"right_children":[2,-1,4,-1,-1],"split_conditions":[-6.207916E-1,-2.146133E-2,-1.2914799E-1,3.217778E-2,-1.3454131E-2],"split_indices":[2,0,2,0,0],"split_type":[0,0,0,0,0],"sum_hessian":[3.492359E0,1.0841371E0,2.408222E0,1.2940271E0,1.114195E0],"tree_param":{"num_deleted":"0","num_feature":"14","num_nodes":"5","size_leaf_vector":"1"}},{"base_weights":[6.631452E-4,1.5442878E-2,-1.7766254E-2],"categories":[],"categories_nodes":[],"categories_segments":[],"categories_sizes":[],"default_left":[0,0,0],"id":98,"left_children":[1,-1,-1],"loss_changes":[1.5009056E-1,0E0,0E0],"parents":[2147483647,0,0],"right_children":[2,-1,-1],"split_conditions":[-3.2864904E-1,1.5442878E-2,-1.7766254E-2],"split_indices":[13,0,0],"split_type":[0,0,0],"sum_hessian":[3.473112E0,1.9369432E0,1.536169E0],"tree_param":{"num_deleted":"0","num_feature":"14","num_nodes":"3","size_leaf_vector":"1"}},{"base_weights":[5.154858E-5,-2.035156E-2,1.3469504E-1,-7.4071037E-3,2.6603807E-2],"categories":[],"categories_nodes":[],"categories_segments":[],"categories_sizes":[],"default_left":[0,0,0,0,0],"id":99,"left_children":[1,-1,3,-1,-1],"loss_changes":[1.4975516E-1,0E0,1.09872326E-1,0E0,0E0],"parents":[2147483647,0,0,2,2],"right_children":[2,-1,4,-1,-1],"split_conditions":[4.1175056E0,-2.035156E-2,9.345231E-1,-7.4071037E-3,2.6603807E-2],"split_indices":[4,0,0,0,0],"split_type":[0,0,0,0,0],"sum_hessian":[3.4635952E0,1.1752392E0,2.2883558E0,1.0521082E0,1.2362477E0],"tree_param":{"num_deleted":"0","num_feature":"14","num_nodes":"5","size_leaf_vector":"1"}}]},"name":"gbtree"},"learner_model_param":{"base_score":"[3E-3]","boost_from_average":"1","num_class":"0","num_feature":"14","num_target":"1"},"objective":{"name":"binary:logistic","reg_loss_param":{"scale_pos_weight":"1"}}},"version":[3,2,0]}